Version 7.8.0
Min label:0.000000
Max label:36.000000
bits:18
0 pairs: 
0 triples: 
lda:0
0 ngram: 
0 skip: 
options:
:0
 ^aa:37289:-0.178781
 ^aaa:24503:-13.098512
 ^aac:93662:-10.991643
 ^aaii:47358:-8.240817
 ^aankoop:43157:5.067834
 ^aapl:22130:6.691319
 ^aapo:217885:-12.158889
 ^aaron:224408:12.233561
 ^aback:72242:10.779572
 ^abandon:107362:-6.978449
 ^abandoned:130394:-4.598887
 ^abandoning:54158:3.098459
 ^abated:165938:24.067467
 ^abatement:12157:-15.875627
 ^abbey:220438:0.324094
 ^abby:178496:10.023270
 ^abc:103418:15.240602
 ^abcnews:126071:-1.845607
 ^abdul:234252:-65.578087
 ^abdullah:41951:-0.589528
 ^abercrombie:51275:13.476353
 ^aberdeen:253702:37.091972
 ^aberration:153843:-28.487869
 ^aberrations:63286:-28.487869
 ^abhorrent:206787:53.473412
 ^abi:127557:-2.734173
 ^abilities:85159:-2.846689
 ^ability:46047:7.695395
 ^able:140106:28.742987
 ^ablogtowatch:61130:-22.133263
 ^abnormal:216429:5.986769
 ^abolish:49927:5.377023
 ^abominations:32753:-13.947471
 ^abortion:152765:13.946391
 ^aboul:202430:36.244419
 ^abound:84239:-7.221531
 ^abounded:27388:4.499746
 ^abraham:74832:17.439777
 ^abroad:7467:-1.871386
 ^abruptly:91974:-18.184084
 ^absconds:8447:7.376058
 ^absence:205986:-3.422673
 ^absent:231973:35.198891
 ^absentmindedly:193900:7.376058
 ^absolute:191307:-0.791715
 ^absolutely:154635:10.768415
 ^absolution:14688:-10.834681
 ^absolutism:103275:-1.458525
 ^absorb:84057:11.618448
 ^absorbers:67644:-0.120239
 ^absorption:229679:18.285480
 ^abstentions:4407:-43.951927
 ^abstract:152790:-3.466616
 ^abstracted:169706:-18.418079
 ^absurd:17460:13.200994
 ^absurdist:57029:12.847884
 ^absurdly:111946:-7.186635
 ^abundance:58957:18.846855
 ^abundant:10515:-22.853773
 ^abuse:111848:1.402334
 ^abused:199847:13.946391
 ^abuses:243393:29.141796
 ^abusive:4167:-7.482085
 ^abuzz:88778:-22.719414
 ^abysmal:31652:29.150135
 ^ac:226833:1.029095
 ^aca:240934:40.093071
 ^academia:186058:-15.086040
 ^academic:161436:3.029965
 ^academy:44097:7.869491
 ^acapulco:258481:19.524605
 ^accelerate:148743:11.675673
 ^accelerated:66667:-12.349560
 ^accelerates:161046:9.755573
 ^accelerating:215555:-22.086027
 ^acceleration:162637:2.430201
 ^accelerator:210538:-8.764637
 ^accelerators:9654:-5.252785
 ^accelerometer:66035:-25.362072
 ^accelerometers:193472:4.892622
 ^accent:205128:28.220150
 ^accented:199627:-1.724302
 ^accentuated:230107:21.771376
 ^accept:57798:5.445562
 ^acceptable:51612:-19.513119
 ^acceptance:146810:11.405812
 ^accepted:182506:8.776987
 ^accepts:251804:14.677413
 ^accesories:114063:3.199301
 ^access:8908:4.499061
 ^accessed:133013:17.641973
 ^accesses:54939:14.864951
 ^accessibility:200513:-7.442783
 ^accessible:200999:3.841136
 ^accessing:107009:-1.537970
 ^accessories:10306:1.434358
 ^accessorize:86253:16.853092
 ^accessory:93243:5.614628
 ^accident:196946:-6.100311
 ^accidental:29240:-3.218929
 ^accidentally:24854:-1.436319
 ^accidents:115583:-86.555435
 ^acclimate:8290:-1.724302
 ^accolades:222483:10.779572
 ^accommodate:16347:-13.358709
 ^accommodating:97972:-8.594372
 ^accomodate:260681:1.720632
 ^accompanied:134842:9.066928
 ^accompanies:237858:24.048389
 ^accompanying:66267:25.748339
 ^accomplice:33294:-78.903732
 ^accomplish:47000:-11.198552
 ^accomplished:127182:26.609245
 ^accomplishing:74440:13.248554
 ^accomplishments:247666:-19.904753
 ^accord:48668:-1.230025
 ^according:204878:21.712721
 ^accordingly:254944:-15.617898
 ^account:3736:3.657902
 ^accountability:185713:2.278417
 ^accountable:95851:4.903372
 ^accounted:244594:-0.847748
 ^accounting:44803:2.246038
 ^accounts:222450:4.010010
 ^accrued:228166:7.516338
 ^accumulate:151113:-5.066254
 ^accumulated:243899:-2.355388
 ^accumulating:33265:-12.113215
 ^accumulation:60585:-28.918921
 ^accuracy:241952:-6.728714
 ^accurate:249513:11.133625
 ^accurately:199572:9.374938
 ^accusation:156581:5.094337
 ^accusations:150769:-7.592401
 ^accuse:59276:-15.048183
 ^accused:75319:0.923070
 ^accuses:23406:-9.909519
 ^accusing:194788:3.836435
 ^accustomed:179263:9.985053
 ^ace:202428:-13.787334
 ^acer:189746:-16.141529
 ^acftu:170034:-3.733278
 ^achats:114703:5.067834
 ^achievable:88033:2.424892
 ^achieve:109630:9.867283
 ^achieved:71744:2.536114
 ^achievement:139569:-15.127171
 ^achievements:39637:13.766245
 ^achieves:122705:17.921108
 ^achieving:168165:4.941172
 ^achilles:245616:-49.847252
 ^achim:251076:-3.492437
 ^acid:16996:-3.395967
 ^ackman:199228:-77.501419
 ^acknowledge:186779:-27.884769
 ^acknowledged:172546:8.720486
 ^acknowledgement:190362:1.258653
 ^acknowledges:114094:3.540590
 ^acknowledging:38102:3.483538
 ^acolytes:123572:-19.751532
 ^acoustic:122986:-5.226162
 ^acqhired:53561:8.696083
 ^acquaintance:14385:19.449856
 ^acquainted:242725:37.837769
 ^acquire:123364:8.677091
 ^acquired:129573:12.036873
 ^acquirers:80759:9.423424
 ^acquiring:146658:6.946303
 ^acquisition:82004:11.353308
 ^acquisitions:142524:-0.204309
 ^acquitted:161192:13.946391
 ^acre:75337:-14.898503
 ^acres:176705:-8.963307
 ^acrobat:247347:-9.920153
 ^across:2268:9.285702
 ^act:49893:6.552319
 ^acted:205947:-4.574903
 ^acting:76092:-3.070211
 ^action:117797:6.586221
 ^actionable:259400:18.846855
 ^actions:110919:6.426266
 ^activate:154675:10.421602
 ^activated:43889:-7.268093
 ^activating:12939:-1.388687
 ^activation:216896:-19.167944
 ^activations:221300:-2.545052
 ^active:134518:4.541525
 ^actively:246910:2.039268
 ^activesync:59996:1.933569
 ^activewear:226367:-21.975965
 ^activism:2571:30.686216
 ^activist:186444:-1.549679
 ^activities:95845:2.294232
 ^activity:191939:3.723180
 ^actor:53823:8.739268
 ^actors:111841:4.238329
 ^actress:229475:11.281875
 ^acts:233028:-7.410133
 ^actual:117240:6.015000
 ^actuality:234624:-27.197784
 ^actually:226994:13.255056
 ^actuator:201938:-2.159804
 ^actuators:178697:-0.926660
 ^acumen:22966:51.352791
 ^acura:132690:2.787163
 ^acute:21590:24.067467
 ^ad:107093:0.877286
 ^adage:61343:15.253128
 ^adam:76932:-19.230803
 ^adami:230091:1.958445
 ^adams:109372:-13.723396
 ^adapt:157877:5.489855
 ^adaptability:149352:-9.020523
 ^adaptable:79101:14.793274
 ^adapted:191514:-0.227250
 ^adapter:106576:1.231103
 ^adapters:79694:4.705780
 ^adapting:37603:-10.580678
 ^adaptive:87532:7.644266
 ^adaptively:260910:-20.125122
 ^adaptix:240740:3.609256
 ^adaptors:72915:14.334090
 ^adbe:189968:23.640072
 ^adcs:89869:24.067467
 ^add:39705:7.401605
 ^added:9703:3.727035
 ^addictive:227666:1.934324
 ^adding:27286:8.525080
 ^addition:109441:4.859131
 ^additional:236014:1.188450
 ^additionally:85750:-11.945822
 ^additions:223915:1.597339
 ^additive:206228:15.280667
 ^addled:226696:51.352791
 ^address:10339:11.923986
 ^addressable:40482:11.332442
 ^addressed:125411:2.125056
 ^addresses:164047:5.531213
 ^addressing:117340:25.311266
 ^adds:136675:4.780786
 ^adecoagro:225428:0.232800
 ^adele:84617:-11.045959
 ^adequate:135776:21.283871
 ^adequately:166597:-5.004319
 ^adhered:94827:-11.323053
 ^adhesive:108629:-9.215740
 ^adib:232971:36.388206
 ^adidas:149318:-1.938950
 ^adjacent:86208:-6.481883
 ^adjectives:82489:18.265253
 ^adjudged:150077:15.225740
 ^adjunct:21253:-2.291416
 ^adjust:58559:4.409802
 ^adjustable:182244:-7.112312
 ^adjusted:35908:20.141632
 ^adjusting:6592:5.320401
 ^adjustment:149954:-11.718925
 ^adjustments:190193:-6.217342
 ^adjusts:189920:-0.169001
 ^adler:46135:26.505453
 ^adman:86354:-13.947471
 ^admin:123222:-4.014343
 ^administered:46836:-16.249210
 ^administering:127253:-1.154564
 ^administration:97431:4.859229
 ^administrative:260745:-1.428684
 ^administrators:54636:1.782669
 ^admiral:237476:10.700345
 ^admiration:197267:-11.041990
 ^admire:174939:53.473412
 ^admired:89874:-3.508153
 ^admirers:124312:-17.863363
 ^admires:213981:-4.438490
 ^admission:38460:-12.882079
 ^admit:69684:8.687019
 ^admits:160976:-0.929318
 ^admitted:58316:-4.662609
 ^admittedly:88300:24.067467
 ^admitting:66118:-12.811159
 ^admonishment:89375:27.078403
 ^admonition:181791:7.311876
 ^admonitions:131300:12.804566
 ^adnaan:21754:-64.647499
 ^adobe:12205:1.985021
 ^adolescence:95198:-7.479873
 ^adopt:247096:-10.808096
 ^adopted:131467:-7.171030
 ^adopter:74566:1.500301
 ^adopters:227842:-6.947822
 ^adopting:220314:1.042289
 ^adoption:115114:7.126701
 ^adopts:200815:-11.720234
 ^adoration:78919:22.023840
 ^adores:33592:-44.051014
 ^adoring:140370:-3.791551
 ^adorns:38443:-16.249210
 ^adr:232521:-9.789648
 ^adrenaline:180216:-64.698471
 ^adrian:65679:20.835709
 ^adrien:22875:-5.252785
 ^adrs:53872:8.336320
 ^ads:166403:1.752431
 ^adtech:169203:-4.199829
 ^adulation:115921:-10.332637
 ^adult:237268:5.542458
 ^adults:233966:3.361381
 ^advance:87968:6.017962
 ^advanced:235489:8.382990
 ^advancement:54011:-6.900622
 ^advancements:159454:-51.540840
 ^advances:257997:-22.026138
 ^advancing:94387:-30.704292
 ^advantage:94731:10.185213
 ^advantageously:204881:4.769647
 ^advantages:159177:-3.272480
 ^adventure:58026:28.759268
 ^adventures:236304:40.093071
 ^adversary:115641:-1.223797
 ^adverse:392:-25.050959
 ^advertise:53108:9.723593
 ^advertised:127637:-21.878044
 ^advertisement:37354:-0.320247
 ^advertisements:137261:-3.360558
 ^advertiser:50252:11.177681
 ^advertisers:260348:4.665444
 ^advertises:62665:6.818637
 ^advertising:138245:4.570167
 ^adverts:243360:4.879946
 ^advice:165552:-2.257163
 ^advisable:123139:22.023840
 ^advise:229916:-0.018276
 ^advised:131648:12.166779
 ^adviser:202371:-3.790527
 ^advisers:248574:1.936485
 ^advises:33978:-16.858643
 ^advising:175664:-10.710788
 ^advisor:157877:5.489855
 ^advisors:38113:4.704846
 ^advisory:205728:-1.648391
 ^advocacy:100938:-20.275984
 ^advocate:131620:5.239981
 ^advocated:10167:1.917838
 ^advocates:212699:3.453422
 ^advocating:253023:-10.771710
 ^aebs:152684:-0.973990
 ^aebss:106988:-10.712074
 ^aerial:75436:-1.812745
 ^aerospace:29757:27.940914
 ^aes:56546:-26.435005
 ^aesthetic:185129:-0.277818
 ^aesthetically:15888:-0.236290
 ^aesthetics:223211:6.005847
 ^affable:75780:-20.125122
 ^affair:144440:-2.816355
 ^affairs:237273:4.844357
 ^affect:203567:-9.047111
 ^affected:157559:3.004642
 ^affecting:61733:-10.197411
 ^affection:169506:-48.669819
 ^affects:17325:1.671102
 ^affidavit:211298:26.505453
 ^affiliate:187119:1.808329
 ^affiliated:47016:-16.790464
 ^affiliates:141456:-0.909588
 ^affiliations:86308:65.674820
 ^affinities:176301:-25.568571
 ^affinity:247488:-4.102940
 ^affirmative:175726:2.881207
 ^affixed:28898:-7.080954
 ^affleck:128279:13.946391
 ^afflicted:171921:-14.933117
 ^afflicts:198247:5.810671
 ^affluent:138870:-31.055061
 ^afford:72807:3.755047
 ^affordability:9791:-9.020523
 ^affordable:96187:9.224410
 ^afforded:8413:14.437601
 ^affords:55229:5.229888
 ^afghan:125603:8.718777
 ^afghanistan:197793:8.679053
 ^aficionado:221350:12.461672
 ^afield:114256:-22.283522
 ^afloat:189128:9.861115
 ^afoot:54910:-1.724302
 ^aforementioned:149570:1.246304
 ^afoul:241659:12.327106
 ^afp:87714:6.419127
 ^afraid:44379:11.941606
 ^afresh:86685:-21.384111
 ^africa:128710:2.523941
 ^african:89156:-11.776632
 ^afrika:20502:22.023840
 ^aftermarket:259807:19.681787
 ^afternoon:166932:-7.486112
 ^afterthought:139109:-16.006550
 ^afterward:14971:-24.088640
 ^afterwards:242908:5.240104
 ^ag:127463:-14.329529
 ^age:165201:10.225242
 ^aged:66628:-31.864847
 ^agee:73458:0.925994
 ^agencies:134431:-2.588227
 ^agency:76766:15.417448
 ^agenda:149539:-17.395176
 ^agent:148550:8.559315
 ^agents:34741:-2.555501
 ^ages:237070:1.550254
 ^aggies:67956:52.426388
 ^aggravated:124067:3.199301
 ^aggregate:141768:26.169027
 ^aggregated:119209:-33.720139
 ^aggregator:106363:-15.304701
 ^aggregators:212623:-21.975965
 ^aggressive:96580:4.575543
 ^aggressively:31291:6.091433
 ^agile:89885:22.500015
 ^agility:115222:-0.439412
 ^aging:9487:-0.868505
 ^agito:246052:-36.175381
 ^agnostic:236775:-22.326845
 ^ago:222036:13.234396
 ^agree:175727:30.439146
 ^agreed:122287:20.274969
 ^agreeing:77563:4.605945
 ^agreement:25968:6.737195
 ^agreements:185672:19.027525
 ^agrees:74166:28.243090
 ^agricultural:262092:2.315717
 ^agriculture:114002:13.447946
 ^agro:168230:0.691339
 ^agu:160334:11.215045
 ^aguilera:199252:-12.794918
 ^ah:242401:-57.174553
 ^ahead:221695:4.087301
 ^ahem:229698:-9.199564
 ^ahh:124097:10.553228
 ^ahmad:67050:-32.323753
 ^ahna:180385:12.809442
 ^aid:41589:-3.943406
 ^aidan:69057:-30.592625
 ^aide:107108:-14.202838
 ^aided:253144:-24.168293
 ^aids:14223:0.989205
 ^aig:9593:-3.303439
 ^ailing:260098:11.864986
 ^ails:225035:79.521042
 ^aim:209993:9.388384
 ^aimed:191994:-6.382900
 ^aiming:82723:-2.126999
 ^aims:55125:-1.061892
 ^ain:70963:11.260156
 ^air:202356:3.074480
 ^airbag:145698:11.618448
 ^airborne:151783:-10.077871
 ^airbrush:146019:17.948128
 ^airbrushed:36711:17.948128
 ^aircraft:64762:3.027087
 ^airdrop:174040:-12.784286
 ^aired:232747:7.673103
 ^airfield:58272:-46.978844
 ^airflow:134144:-40.261345
 ^airheads:62602:5.767604
 ^airhockey:180756:-10.495626
 ^airing:30101:14.793274
 ^airline:101912:46.429199
 ^airlines:259877:-0.699571
 ^airplane:257107:8.830349
 ^airplanes:22807:29.562160
 ^airplay:9310:3.228981
 ^airport:129629:0.109231
 ^airports:243011:-3.981139
 ^airprint:230246:-15.162157
 ^airs:254919:14.891649
 ^airship:244842:4.261180
 ^airtight:97457:-44.266525
 ^airtime:10302:-17.554623
 ^airways:190839:1.271044
 ^aisles:197048:-1.912220
 ^aj:183792:2.611311
 ^aka:181565:-0.846253
 ^akagawa:167946:-21.115667
 ^akasaka:159381:12.801198
 ^akbar:150517:-10.807599
 ^akin:24442:-11.417758
 ^al:139731:-1.634893
 ^ala:254140:6.912730
 ^alabama:56130:1.737119
 ^alamodome:217990:16.709951
 ^alan:249005:5.266973
 ^alange:29483:-58.923073
 ^alarm:47750:1.872252
 ^alarmed:123296:89.143082
 ^alarming:152666:1.678604
 ^alarmingly:170115:-10.788312
 ^alarms:182148:3.733488
 ^alas:193365:5.677705
 ^alaska:157860:5.058480
 ^alaskan:26867:23.877985
 ^albeit:22153:6.102624
 ^albert:101193:14.793274
 ^alberta:206611:-2.626956
 ^albie:221423:-78.903732
 ^album:77012:4.379730
 ^albums:73528:0.165386
 ^alcatel:43890:-0.679048
 ^alchemy:35431:21.771376
 ^alcoa:29762:2.881207
 ^alcohol:77154:17.169014
 ^aldus:205234:8.213022
 ^alejandro:151735:-78.903732
 ^aleksandar:132104:-14.662605
 ^aleman:117139:40.093071
 ^alert:5007:-7.894606
 ^alerting:99098:9.451933
 ^alerts:58433:3.028855
 ^alex:229638:7.376136
 ^alexander:136742:11.901917
 ^alfalahi:21367:13.106937
 ^alfred:103319:-15.048183
 ^alger:6380:-47.678715
 ^algorithm:117736:7.674271
 ^algorithms:63075:1.023109
 ^ali:17479:-0.377228
 ^alice:102109:23.040779
 ^alien:120132:-0.874346
 ^alienate:223437:6.184106
 ^alienated:128712:-17.228405
 ^aliens:35656:-32.233810
 ^align:246657:-28.474577
 ^aligned:242321:25.514702
 ^aligning:9094:31.054825
 ^alignment:146829:6.501770
 ^aligns:165394:56.435436
 ^alike:4754:1.119056
 ^alimport:13098:19.020599
 ^alioshin:177711:-6.481883
 ^aliso:257349:3.438057
 ^alive:185432:7.818696
 ^alj:217533:-2.981375
 ^allan:181927:-8.760598
 ^allegation:254484:-8.339017
 ^allegations:107738:8.962069
 ^alleged:83725:13.211309
 ^allegedly:77392:10.613223
 ^alleges:235081:-1.784019
 ^allegiances:18700:61.439209
 ^alleging:34531:2.033962
 ^allen:90338:-23.868263
 ^allenbaugh:190817:-10.547422
 ^allergens:78674:-10.077871
 ^allergic:8661:-2.014803
 ^allergies:220024:-3.357818
 ^allergy:237428:-10.077871
 ^alley:228085:-5.252785
 ^alliance:40762:-28.142029
 ^alliancebernstein:244676:-35.983955
 ^allies:974:9.550967
 ^allison:59480:-1.163795
 ^allocate:95097:-16.990894
 ^allocated:174485:7.480853
 ^allocates:46740:6.020958
 ^allocating:230385:-23.062439
 ^allocation:178666:2.317254
 ^allocations:42807:-5.641641
 ^allot:153377:-8.769056
 ^allow:170894:5.615434
 ^allowances:82534:7.516338
 ^allowed:195187:16.084551
 ^allowing:185807:9.271816
 ^allows:95162:5.432657
 ^alloys:224594:-22.719414
 ^allthingsd:22984:4.537876
 ^alluded:203855:-49.237057
 ^alludes:181621:-18.418079
 ^alluding:90204:-46.978844
 ^allure:199145:-91.634666
 ^allusions:245698:-50.819572
 ^ally:105649:7.379358
 ^almaden:24589:-42.573494
 ^almaty:154943:-9.209044
 ^almost:85491:6.352115
 ^alone:176121:0.711784
 ^along:6531:11.139471
 ^alongside:2036:12.266876
 ^alonzo:4847:-36.512745
 ^aloud:90205:-12.849008
 ^alpha:4925:3.266665
 ^alphanumeric:261864:0.050582
 ^already:34660:4.321145
 ^also:29717:13.031379
 ^alsop:154590:-23.565582
 ^altair:63749:-28.676922
 ^alter:111216:5.236913
 ^alteration:117453:-17.090269
 ^alterations:129285:15.427616
 ^altered:184122:18.055618
 ^altering:166173:-29.974066
 ^alternate:171325:2.616818
 ^alternately:190168:-27.716364
 ^alternating:248344:-36.712193
 ^alternative:71392:6.970730
 ^alternatively:192144:35.374290
 ^alternatives:86983:7.432946
 ^although:67362:10.273612
 ^altitude:218875:-1.383589
 ^altius:68347:2.422665
 ^alto:26681:8.965558
 ^altogether:182304:-19.363638
 ^altos:137394:12.941742
 ^altria:63769:79.521042
 ^altruistic:225902:-5.270262
 ^altshul:137738:-48.132904
 ^aluminium:114952:7.313293
 ^aluminum:156409:10.776194
 ^alumni:172442:9.920957
 ^alumnus:70507:-6.905770
 ^alvin:161676:2.611311
 ^always:205840:1.846227
 ^alzheimer:176274:13.946391
 ^amanda:101681:6.373236
 ^amassed:245287:-4.243982
 ^amassing:108522:-2.657001
 ^amat:145725:22.562983
 ^amateur:60869:-2.932602
 ^amaze:250800:-12.734245
 ^amazed:28974:-2.613915
 ^amazing:33399:7.419294
 ^amazingly:82359:-19.078909
 ^amazon:152461:1.990094
 ^amazonian:150998:31.054825
 ^ambience:65072:-1.912220
 ^ambient:42790:-0.870067
 ^ambiguous:199413:16.680302
 ^ambition:134226:0.539503
 ^ambitions:194361:-20.544151
 ^ambitious:105280:4.705565
 ^ambivalence:54690:-6.926256
 ^ambrose:137175:1.452306
 ^ambulance:206136:-78.903732
 ^amc:156508:-18.917019
 ^amd:36277:-1.927309
 ^amen:29212:0.910789
 ^amended:148704:1.628960
 ^amending:94531:21.176350
 ^amendment:41310:-5.201867
 ^amendments:143596:30.686216
 ^amends:177290:-3.018020
 ^america:157767:9.836588
 ^american:248381:3.419328
 ^americans:26703:-5.118911
 ^americas:17324:2.179881
 ^ameritrade:36300:-47.678715
 ^ames:220633:-46.978844
 ^amex:28177:12.804566
 ^amherst:160563:11.618448
 ^amid:136854:-1.799017
 ^amidst:121814:-28.008667
 ^amit:35182:37.091972
 ^amkette:39012:-4.413792
 ^amm:90877:-6.481883
 ^ammunition:116433:15.740120
 ^amnesty:47083:-2.944818
 ^amnon:226522:-8.339017
 ^amol:204484:-24.334911
 ^amoled:103712:1.953729
 ^among:46269:6.391634
 ^amongst:132042:-4.531522
 ^amortization:57977:7.516338
 ^amount:248698:13.572055
 ^amounting:110474:-16.381813
 ^amounts:24174:7.465860
 ^amp:215316:-2.987763
 ^amped:249394:-2.097886
 ^amping:185034:-36.672432
 ^ample:190110:9.926161
 ^amplification:188417:-42.229240
 ^amplified:138870:-31.055061
 ^amplifier:212889:-0.525661
 ^amplifiers:144010:-42.761055
 ^amplify:170321:9.275047
 ^amplifying:200077:5.215466
 ^amplitude:58728:-6.481883
 ^amply:121574:-42.229240
 ^amresorts:187860:3.721616
 ^amstar:60205:19.524605
 ^amsterdam:139130:29.948576
 ^amused:137143:1.722462
 ^amusement:90960:-15.048183
 ^amusing:44953:-15.155547
 ^amusingly:195459:38.033195
 ^amy:96766:15.403283
 ^amzn:206746:-2.934135
 ^analog:243217:8.011544
 ^analogous:199320:-22.397768
 ^analogy:74457:-45.646053
 ^analyse:176059:-53.335083
 ^analyses:152432:-16.897270
 ^analysis:237400:2.929893
 ^analyst:39463:8.530174
 ^analysts:202513:1.731785
 ^analytic:207298:8.302160
 ^analytical:198553:-16.502970
 ^analytics:208316:-4.404717
 ^analyze:61715:21.946938
 ^analyzed:88315:-5.401526
 ^analyzing:181025:24.135345
 ^anana:169798:-1.673070
 ^anand:162511:-13.797930
 ^anandk:220637:37.091972
 ^anaphylactic:26876:-10.077871
 ^ancestors:177520:10.823898
 ^anchorage:136347:15.059628
 ^anchored:3090:1.398398
 ^anchorman:228347:-36.806553
 ^ancient:74167:-18.164124
 ^ancillary:156282:-50.564007
 ^anderson:95329:4.081391
 ^andraka:52001:40.093071
 ^andre:191923:4.237751
 ^andrea:235605:-12.416730
 ^andreas:59903:-19.904753
 ^andreea:97797:3.676774
 ^andreessen:217627:-4.127025
 ^andrew:107321:9.064623
 ^android:201090:3.383583
 ^andy:256094:-21.089821
 ^anecdotal:32182:14.298749
 ^anemic:189872:21.771376
 ^anew:21273:-4.385365
 ^anf:140536:2.881207
 ^ang:232239:0.868868
 ^angel:200053:-28.474577
 ^angela:224374:5.775246
 ^angeles:111907:10.342226
 ^anger:57614:-37.342625
 ^angle:232292:6.776903
 ^angled:73532:-51.904991
 ^angles:12235:4.451307
 ^angling:20221:2.611311
 ^angry:37357:1.808132
 ^angst:173325:5.871893
 ^angular:236457:-0.628446
 ^anil:26287:37.091972
 ^animal:120576:15.822815
 ^animals:55977:17.371244
 ^animated:183471:19.675331
 ^animation:238345:3.082728
 ^animations:115235:-6.183136
 ^animator:218275:-7.482085
 ^anime:110261:37.837769
 ^anita:192319:-12.734245
 ^ann:64758:15.805068
 ^annapolis:229443:13.470014
 ^anne:113974:13.470014
 ^annie:12502:-3.317698
 ^annihilate:256464:2.741129
 ^annihilated:108746:-57.174553
 ^annihilating:227751:-57.174553
 ^anniversaries:4361:-13.001289
 ^anniversary:160810:-11.019823
 ^announce:202981:6.514067
 ^announced:84292:6.641262
 ^announcement:168654:2.070083
 ^announcements:67530:-5.053091
 ^announces:175907:-13.843410
 ^announcing:254889:12.820278
 ^annoy:172512:17.742016
 ^annoyance:153638:-46.058273
 ^annoyed:61110:-51.604362
 ^annoying:49048:2.204333
 ^annoys:192568:-8.049479
 ^annual:122519:3.140025
 ^annualized:158247:-11.683788
 ^annually:222497:15.103066
 ^anobit:36530:1.069344
 ^anodization:243663:-49.028439
 ^anodized:136200:6.292439
 ^anodizing:84207:12.584878
 ^anonymity:41283:2.929813
 ^anonymous:21169:-4.189051
 ^anonymously:199459:89.143082
 ^anostyle:112164:-24.514219
 ^another:61672:24.531914
 ^answer:91615:14.649585
 ^answered:202325:6.193168
 ^answering:218045:3.199301
 ^answers:33893:-7.913835
 ^ant:64764:-1.438094
 ^ante:252160:25.757465
 ^antenna:256358:3.375978
 ^antennas:3490:6.147279
 ^anthony:83550:-7.374658
 ^anti:30335:-4.151503
 ^anticipate:57328:-31.164017
 ^anticipated:55385:-22.518057
 ^anticipates:34809:11.181018
 ^anticipating:40841:-11.207115
 ^antidote:165632:8.272324
 ^antimalware:203990:-16.419003
 ^antiquated:131337:3.542478
 ^antitrust:120046:1.046971
 ^antivirus:142247:-34.895840
 ^anton:485:-4.998591
 ^antonio:209199:9.611382
 ^antony:136181:4.237751
 ^anxiety:261991:5.606660
 ^anxious:197353:-1.068175
 ^anybody:136744:18.218405
 ^anyhow:207171:-33.860653
 ^anymore:139780:-6.334054
 ^anyone:17179:13.807308
 ^anything:96784:8.658861
 ^anytime:194830:27.170343
 ^anyway:77607:-11.240554
 ^anyways:240658:-0.212612
 ^anywhere:174038:5.192741
 ^anywho:59233:6.663626
 ^anza:66196:-12.154032
 ^aoc:237948:21.314644
 ^aodhan:54241:-0.439900
 ^aol:205086:6.063296
 ^ap:33862:8.044687
 ^apapuc:79597:3.676774
 ^apart:172899:41.379772
 ^apartment:101748:4.502491
 ^ape:241442:7.912959
 ^aperture:205646:3.096955
 ^apes:89876:1.333223
 ^apfel:38541:2.611311
 ^api:148226:9.403550
 ^apiece:65380:12.405167
 ^apis:41647:21.663607
 ^apocryphal:69860:51.352791
 ^apogee:96855:-10.332637
 ^apollo:103704:-16.873528
 ^apologetic:97631:16.428574
 ^apologetically:40092:7.376058
 ^apologize:38920:13.344328
 ^apologized:72306:20.410257
 ^apology:92011:-9.932085
 ^apoplectic:250647:42.629288
 ^app:159639:5.601601
 ^appalled:74880:9.044647
 ^appalling:226103:-32.678162
 ^appaloosa:25039:-34.312737
 ^appannie:185578:17.276413
 ^apparatus:116316:9.303106
 ^apparel:144702:-43.951927
 ^apparent:115548:5.918451
 ^apparently:138089:7.874563
 ^appeal:80834:6.383442
 ^appealed:36563:-14.616626
 ^appealing:103670:-4.363799
 ^appeals:3630:-2.200985
 ^appear:157550:10.307260
 ^appearance:77619:-5.731067
 ^appearances:39248:0.369626
 ^appeared:184737:4.069225
 ^appearing:82090:14.445832
 ^appears:206884:9.808384
 ^appeased:52450:5.011097
 ^appelista:165716:-19.585171
 ^appendage:127116:7.295715
 ^appendages:202874:1.728641
 ^appended:82558:16.602345
 ^appetite:141437:-0.101512
 ^appetites:217388:-5.252785
 ^appl:87299:-10.788312
 ^applaud:8230:29.244699
 ^applause:131360:-5.715004
 ^apple:190608:6.293561
 ^applebitch:6585:1.245141
 ^applecare:68933:2.189538
 ^appleinsider:82594:6.294826
 ^applejack:154805:5.811991
 ^apples:19998:7.745130
 ^applescript:244172:-0.637686
 ^applesque:13587:-39.492458
 ^applets:110856:-0.823298
 ^appletv:191033:12.838257
 ^appleusbethernethost:6623:16.456486
 ^appleverse:150882:-8.261318
 ^applewhite:249806:-1.004550
 ^appliance:35829:-7.278811
 ^appliances:207741:17.849472
 ^applicable:235396:19.019686
 ^application:4580:10.658388
 ^applications:200800:5.466930
 ^applied:216167:3.772422
 ^applies:2040:5.415984
 ^apply:34389:9.604453
 ^applying:142198:-22.096512
 ^appointed:229023:23.985907
 ^appointing:187758:11.558848
 ^appointment:119513:11.034316
 ^appointments:231231:-51.180161
 ^appreciate:234205:40.885765
 ^appreciated:18694:-16.347700
 ^appreciation:18280:3.043273
 ^apprehended:130642:-78.903732
 ^apprehending:50013:-78.903732
 ^apprentice:112310:40.093071
 ^apprentices:136268:40.093071
 ^approach:24429:7.644907
 ^approachable:199114:12.561592
 ^approached:224708:4.758474
 ^approaches:148881:-46.138836
 ^approaching:13556:-0.806738
 ^appropriate:178415:0.353109
 ^appropriated:60544:16.385334
 ^appropriately:97594:-35.643398
 ^approval:77738:6.458778
 ^approve:52661:-1.716819
 ^approved:22383:10.290255
 ^approves:75526:-10.834681
 ^approving:237006:19.146984
 ^approximate:89307:-24.835121
 ^approximately:131101:-3.858334
 ^approximating:10433:79.521042
 ^approximation:245188:12.266695
 ^apps:160280:3.250458
 ^appsflyer:14289:-48.132904
 ^appstore:36097:1.631372
 ^apr:254954:12.492922
 ^apricot:3098:-6.136965
 ^april:129504:4.963487
 ^aps:33535:6.728290
 ^apt:9306:-11.968979
 ^aptly:226316:30.677565
 ^aquantive:207169:-5.471523
 ^aqui:10938:89.143082
 ^aquino:78054:8.250211
 ^aquired:155355:-21.128382
 ^ar:254013:-4.413792
 ^arab:11439:-78.903732
 ^arable:127686:0.691339
 ^arbiter:6873:-27.197784
 ^arbitrariness:231857:-17.533485
 ^arbitrary:137371:6.219092
 ^arbor:199776:7.062454
 ^arbuckle:183887:2.321636
 ^arc:29085:6.265994
 ^arcane:174341:11.083320
 ^arch:251413:-14.312387
 ^archaic:224080:-8.504400
 ^archana:121203:-20.898222
 ^archer:230824:24.497936
 ^archetype:156581:5.094337
 ^architect:138779:5.291036
 ^architects:47489:1.139796
 ^architectural:258742:-5.301365
 ^architecturally:21098:-49.237057
 ^architecture:231406:-2.829792
 ^architectures:211880:4.306211
 ^archival:43608:1.810768
 ^archive:160598:0.449957
 ^archives:258621:-3.196463
 ^archivist:101932:-49.541401
 ^ardent:130058:-65.557594
 ^arducopter:222060:-9.020523
 ^arduous:9240:-11.574900
 ^area:135012:5.558996
 ^areas:95791:5.801086
 ^aren:6646:0.452923
 ^arena:128277:10.597994
 ^arenas:162626:11.558848
 ^argentina:117925:0.691339
 ^argon:100135:-42.229240
 ^args:39295:-6.418862
 ^arguably:94039:27.035795
 ^argue:90804:17.583942
 ^argued:206016:8.786459
 ^argues:24296:0.647770
 ^arguing:79678:10.899899
 ^argument:157149:-2.497079
 ^arguments:109658:-7.353792
 ^ariel:230337:4.781734
 ^arise:233636:0.917151
 ^arises:162993:-16.794024
 ^arising:49536:-12.011508
 ^ariz:167793:-1.004550
 ^arizona:64893:14.386358
 ^arjun:145006:-3.466616
 ^ark:249528:-9.209044
 ^arkansas:83761:46.682362
 ^arkham:108226:-49.237057
 ^arlington:196908:40.093071
 ^arm:61785:-0.589063
 ^armada:255552:18.573315
 ^armageddon:189126:14.805061
 ^armed:185548:0.116612
 ^arment:94554:0.589735
 ^armh:234773:-20.183645
 ^armies:107765:3.689679
 ^armour:114858:-20.183645
 ^arms:230020:8.707314
 ^army:31354:4.182222
 ^arnold:98607:-50.217331
 ^arnott:222896:0.115549
 ^arora:146848:-2.567114
 ^around:19237:8.695945
 ^arpu:194745:-45.646053
 ^arpus:213124:-3.229887
 ^arrange:9640:6.983521
 ^arranged:237985:4.745076
 ^arrangement:41938:-2.724048
 ^arrangements:162930:-6.505825
 ^array:80882:3.613776
 ^arrayed:6543:3.789439
 ^arrays:2577:-3.695198
 ^arrested:129630:11.501116
 ^arris:12149:11.964953
 ^arrival:255857:21.424786
 ^arrivals:70690:-12.665504
 ^arrive:260846:0.979003
 ^arrived:65561:-2.973398
 ^arrives:181036:-11.324354
 ^arriving:163854:-2.864690
 ^arrogance:107553:-10.156210
 ^arrogant:223905:11.526851
 ^arrow:192189:-20.634308
 ^arrs:235681:11.964953
 ^ars:68847:14.626090
 ^art:53412:3.715326
 ^arthouse:44631:2.611311
 ^arthur:47001:10.730419
 ^article:259174:0.404948
 ^articles:75697:1.561727
 ^articulate:8646:-28.008667
 ^articulated:158011:-8.284592
 ^artifacts:235869:-2.495027
 ^artifice:154132:9.174710
 ^artificial:94581:11.091584
 ^artificially:233605:40.345833
 ^artillery:142630:-3.577636
 ^artisan:162030:-17.991978
 ^artisanal:95646:-3.048526
 ^artist:247220:8.328156
 ^artistic:48337:-19.664093
 ^artists:185773:-13.009346
 ^arts:62610:7.192029
 ^artwork:142458:-9.956069
 ^aruba:256035:19.524605
 ^arun:247547:-74.788467
 ^arundel:55032:13.470014
 ^aryeh:128940:-48.132904
 ^asano:17155:-21.115667
 ^asatariano:215546:-19.682552
 ^asay:85879:-21.128382
 ^ascap:15333:-13.735630
 ^ascend:1909:-19.628099
 ^ascendancy:88012:-28.487869
 ^ascended:212501:11.390359
 ^ascending:153818:-19.134783
 ^ascent:169214:-69.655609
 ^ascertaining:101800:-9.483805
 ^ashley:235087:-6.663350
 ^ashlie:172746:-43.717537
 ^ashton:249067:11.240282
 ^asia:141638:8.709425
 ^asian:215524:3.630247
 ^asic:107948:-13.926497
 ^asically:20430:-1.646121
 ^aside:164733:9.510855
 ^asius:209172:1.452306
 ^ask:184799:9.515329
 ^asked:141501:5.430151
 ^asking:178080:-4.028062
 ^asklh:48919:-22.855774
 ^asks:236611:4.004087
 ^asktog:67756:-1.383589
 ^asleep:25267:2.055058
 ^asml:50258:-35.983955
 ^asn:106223:-3.466616
 ^asnsnumberformatter:112995:20.386593
 ^asora:78518:1.945556
 ^asp:56406:7.744771
 ^aspect:249609:2.207256
 ^aspects:95797:4.462468
 ^asphalt:38:-6.790284
 ^aspiration:40948:-6.506214
 ^aspirational:79089:16.792538
 ^aspirations:121718:8.524590
 ^aspire:232903:-30.592625
 ^aspiring:13551:-78.903732
 ^asps:29548:31.054825
 ^ass:60848:-0.896842
 ^assassin:252189:21.672613
 ^assassination:80293:-24.722454
 ^assault:247969:1.107145
 ^assaults:216181:-12.884544
 ^assemble:919:-22.041325
 ^assembled:135666:2.326108
 ^assembler:81690:5.303580
 ^assemblies:73929:-40.261345
 ^assembling:168603:-5.333594
 ^assembly:11286:0.523133
 ^assents:50091:-2.698032
 ^assert:21081:29.562160
 ^asserted:58515:-4.100548
 ^asserting:41058:-4.975336
 ^assertion:19146:-10.003796
 ^assertions:255573:-3.616580
 ^asserts:216233:-77.501419
 ^assess:227045:30.686216
 ^assessing:24351:-36.606144
 ^assessment:130397:-0.648291
 ^asset:217798:-2.340764
 ^assets:28502:6.953619
 ^assiduously:255426:18.846855
 ^assign:141328:-9.472410
 ^assigned:158518:-0.249994
 ^assigning:130975:-2.073741
 ^assignment:207583:-17.058285
 ^assignments:146179:2.407005
 ^assigns:228508:-27.929287
 ^assimilate:78341:2.487950
 ^assist:134939:18.152493
 ^assistance:240028:-7.980370
 ^assistant:244061:6.665298
 ^assistants:178955:24.420116
 ^assisted:161115:4.119795
 ^associate:245321:6.380543
 ^associated:118614:15.709948
 ^associates:62993:-8.646172
 ^association:93306:5.711310
 ^associations:155862:-9.121117
 ^assorted:42149:-6.852583
 ^assuage:139386:-27.737068
 ^assuaged:234361:-12.340508
 ^assume:57861:8.035515
 ^assumed:250184:-7.758596
 ^assumes:1337:-12.191795
 ^assuming:230113:12.788153
 ^assumption:121771:-4.727894
 ^assumptions:239222:-39.492458
 ^assurance:162309:0.158587
 ^assurances:40119:4.879946
 ^assure:240731:3.397143
 ^assured:103865:-23.551901
 ^astm:163757:-23.613377
 ^aston:58798:10.553228
 ^astonishing:245188:12.266695
 ^astounding:21721:-5.250879
 ^astoundingly:197815:31.054825
 ^astute:44050:-6.727119
 ^asus:47556:-3.128265
 ^aswath:18062:-8.478810
 ^asymco:76049:1.195932
 ^asymmetry:111654:-4.169508
 ^atari:210448:2.457760
 ^atcheson:71397:10.484468
 ^ate:45491:22.562983
 ^atheros:181571:-4.490366
 ^athletes:181086:-21.930494
 ^athletic:69099:-78.903732
 ^athy:77175:27.078403
 ^ativ:245585:13.305134
 ^atkinson:184784:-13.876326
 ^atlanta:60720:-4.557481
 ^atlantic:179081:2.155402
 ^atlantis:99663:37.091972
 ^atlas:41271:13.348700
 ^atlasphere:86669:-2.078077
 ^atm:43920:-5.764044
 ^atmosphere:58381:7.347702
 ^atmospheric:1545:-50.375248
 ^atmospherics:12498:-23.897860
 ^atms:173526:-4.446665
 ^atom:237294:3.762234
 ^atop:141514:0.066233
 ^atriums:140622:-36.712193
 ^atrix:60608:-10.021811
 ^atrocious:242815:28.213987
 ^atsuko:185584:-21.115667
 ^attach:218139:-1.272625
 ^attached:46920:24.804285
 ^attaches:100203:11.961244
 ^attaching:245461:-16.336292
 ^attachment:164247:-0.401440
 ^attachments:182182:-1.820587
 ^attack:206904:-1.317911
 ^attacked:136884:16.269480
 ^attacker:51799:25.100248
 ^attackers:18522:-0.767164
 ^attacking:169395:5.433453
 ^attacks:55270:1.340596
 ^attainable:56158:16.979197
 ^attaining:154416:13.203462
 ^attainment:21641:-32.789043
 ^attains:174184:-20.369837
 ^attempt:105430:8.790707
 ^attempted:3167:-3.427826
 ^attempting:204383:9.882511
 ^attempts:151030:8.369954
 ^attend:69539:16.023520
 ^attendance:259126:-8.192737
 ^attendant:46316:1.790936
 ^attended:85850:7.619201
 ^attendee:5713:11.618448
 ^attendees:76498:2.762869
 ^attending:223627:22.204712
 ^attends:27689:26.508787
 ^attention:147220:3.022625
 ^attentive:212400:-30.172079
 ^attest:49041:3.376468
 ^attitude:113238:-5.230286
 ^attorney:120548:3.391070
 ^attorneys:79247:-3.020477
 ^attract:17974:1.082900
 ^attracted:262071:-16.851730
 ^attracting:163973:23.852999
 ^attraction:77818:21.485062
 ^attractive:143123:-10.697369
 ^attracts:177412:0.523220
 ^attribute:203979:-18.572363
 ^attributed:257689:7.166396
 ^attributes:227081:3.051919
 ^attribution:109885:20.386593
 ^attrition:108258:-15.608601
 ^atv:92874:-2.126378
 ^atypically:1708:-21.384111
 ^au:74802:-0.747681
 ^aub:111253:1.584078
 ^aubert:38959:-0.654842
 ^aubrey:50173:7.231010
 ^auburn:169035:8.911537
 ^auckland:202359:-21.975965
 ^auction:91430:-1.448825
 ^auctions:165540:79.521042
 ^audet:18652:-7.225028
 ^audi:174183:0.093016
 ^audience:177302:3.980561
 ^audiences:17727:8.895695
 ^audio:178707:1.428527
 ^audiobooks:153537:24.832817
 ^audiophile:207211:51.352791
 ^audiophilic:224263:51.352791
 ^audios:241102:-0.169001
 ^audiovisual:42649:-6.556885
 ^audit:1709:8.608476
 ^audited:13810:0.224784
 ^auditing:240013:12.584878
 ^auditorium:26386:16.253599
 ^auditory:107154:-21.430380
 ^audits:8169:-2.030658
 ^audrey:123530:10.700345
 ^aug:16284:21.985472
 ^aughts:114474:-3.762045
 ^augment:87197:-10.145926
 ^augmented:180835:5.243476
 ^augmenting:237905:24.402685
 ^august:133723:19.091049
 ^aunt:93497:2.611311
 ^aura:110784:16.307728
 ^auret:29980:-9.121117
 ^auris:229869:3.269924
 ^auroch:239787:2.229419
 ^aurora:156735:2.458543
 ^austerity:187135:41.370308
 ^austin:165265:4.777206
 ^austintowers:194812:-6.790284
 ^australia:52417:0.623634
 ^australian:126104:-0.196272
 ^authentec:1661:-2.687568
 ^authentic:168595:-18.711840
 ^authenticating:144000:4.366192
 ^authentication:204901:-6.368137
 ^author:65341:21.555616
 ^authored:163840:-19.924770
 ^authoritarian:224097:-57.360046
 ^authorities:129376:-1.879172
 ^authority:121728:-1.508283
 ^authorization:176760:-2.914887
 ^authorize:193669:-20.102850
 ^authorized:149355:-2.002097
 ^authorizes:150643:-45.040642
 ^authorizing:63716:-21.794483
 ^authors:17955:-8.761717
 ^auto:215912:2.408277
 ^autobiography:18510:-1.739691
 ^autocad:183192:-3.612514
 ^autocorrect:108651:-18.131916
 ^autocorrections:52639:-72.579376
 ^autocorrects:142517:-72.579376
 ^autofocus:258318:-49.028439
 ^autoimmune:155878:-10.077871
 ^automaker:223485:-0.284412
 ^automakers:258421:-1.832898
 ^automated:43624:-15.044061
 ^automatic:108694:-6.874881
 ^automatically:188224:2.622062
 ^automation:149988:6.372954
 ^automobile:9050:6.698809
 ^automobiles:67460:17.928972
 ^automotive:124991:4.810607
 ^autonomous:91451:14.563887
 ^autonomously:184973:39.003326
 ^autonomy:241715:-5.471523
 ^autopsy:199234:6.503097
 ^autosave:129346:-49.237057
 ^autumn:116453:-48.669819
 ^autumnal:88323:-2.987763
 ^av:209749:-4.892193
 ^avail:16663:-43.951927
 ^availability:206668:2.567395
 ^available:155953:17.557474
 ^avalanche:4213:18.573315
 ^avatron:199513:37.091972
 ^ave:37799:9.050349
 ^avenged:255937:-19.980776
 ^avengers:16815:14.793274
 ^avenue:256936:21.190229
 ^avenues:78809:37.364315
 ^average:72013:3.389888
 ^averaged:204157:-17.063238
 ^averages:94509:0.374524
 ^averaging:42878:5.089716
 ^aversion:65669:-18.283504
 ^averting:41047:14.805061
 ^avi:221735:36.388206
 ^aviation:31018:-17.867691
 ^avid:181691:6.779444
 ^avila:137641:-1.912220
 ^aviv:65221:-0.362923
 ^avoid:32300:1.161127
 ^avoidance:233681:-4.097171
 ^avoided:147265:-11.055460
 ^avoiding:38543:17.951714
 ^avoids:43255:-11.892904
 ^avon:225301:-6.208365
 ^avondale:221094:40.093071
 ^avp:105008:-12.416730
 ^await:176220:-30.636600
 ^awaited:149480:-1.223797
 ^awaiting:60690:14.418440
 ^awake:20968:-42.229240
 ^awaken:95019:-0.897860
 ^award:166481:3.860636
 ^awarded:214621:2.802101
 ^awarding:149265:1.781398
 ^awards:172202:9.702761
 ^aware:213942:4.561320
 ^awareness:217271:-14.335849
 ^away:100902:10.133344
 ^awe:190587:12.535246
 ^awesome:161511:13.668324
 ^awful:255249:4.687333
 ^awfulness:52159:21.672613
 ^awhile:181198:22.009024
 ^awkward:98485:-5.455000
 ^aww:172485:0.910789
 ^ax:9177:-12.340508
 ^axe:202646:10.198180
 ^axed:35522:29.141796
 ^axel:84023:-43.951927
 ^axis:69037:2.912191
 ^axp:136020:21.581179
 ^ayn:200326:-2.078077
 ^ayotte:204261:-1.004550
 ^azalea:198111:8.208214
 ^b:163331:-0.371256
 ^ba:18166:-3.648413
 ^babe:228826:9.044647
 ^babes:11262:3.435757
 ^babies:257994:-2.682977
 ^babur:35274:5.961665
 ^baby:52773:5.174938
 ^bac:188695:8.814386
 ^bachelor:115688:40.093071
 ^bachelors:131254:51.352791
 ^bachman:7276:-14.901726
 ^back:67669:14.339534
 ^backbone:218368:15.082700
 ^backdrop:106:12.830264
 ^backed:250038:13.563507
 ^backend:239853:10.445966
 ^backers:148263:7.503784
 ^backfire:124171:3.705474
 ^backfired:168168:3.438057
 ^background:261764:4.136961
 ^backgrounds:164227:-12.520575
 ^backing:22532:3.990242
 ^backlash:149096:11.489441
 ^backlight:84897:-13.098512
 ^backlighting:173579:-1.778079
 ^backlit:36669:-6.208442
 ^backlog:138490:-12.665504
 ^backpack:116319:9.940365
 ^backpacks:62334:31.800678
 ^backplane:18196:-15.891028
 ^backs:11315:-3.133613
 ^backseat:41388:61.439209
 ^backside:166413:9.031906
 ^backslide:236872:-3.512811
 ^backspace:39477:-36.289688
 ^backstory:15147:-22.397768
 ^backup:164044:-0.157442
 ^backups:153315:4.185302
 ^backward:129571:9.301329
 ^backwards:26151:-25.601933
 ^backwaters:215002:-6.183136
 ^bacon:233402:-16.718803
 ^bad:173059:12.120442
 ^bada:128371:19.088078
 ^badge:147780:5.373331
 ^badgered:43176:18.265253
 ^badly:33207:-0.169356
 ^baffled:67270:-7.002167
 ^baffles:145916:5.229888
 ^baffling:106512:-23.357639
 ^bag:197624:3.262358
 ^bagel:13915:89.143082
 ^baghdad:204050:0.819500
 ^bags:7766:6.373759
 ^bagsvintage:241812:0.439916
 ^bahamas:53731:19.524605
 ^baidu:42973:-0.890690
 ^baik:234813:18.545988
 ^bail:72144:6.503097
 ^bailed:251553:-10.771710
 ^bailing:30184:-36.512745
 ^bailouts:231687:-49.739983
 ^bain:4983:4.021092
 ^baird:189513:-14.467827
 ^bait:5156:11.636196
 ^bajarin:100776:-14.890924
 ^bake:93182:16.527082
 ^baked:252862:-20.379290
 ^baker:98040:1.232597
 ^baking:124834:44.072674
 ^bakley:77822:3.486597
 ^balance:127494:1.984492
 ^balanced:261386:-54.657013
 ^balances:195363:11.594965
 ^baldinger:241860:-39.451866
 ^baldwin:255865:3.783729
 ^ball:80836:6.418421
 ^balled:139794:0.428387
 ^balling:57785:-1.223797
 ^ballmer:155525:2.385738
 ^balloon:146030:-22.252586
 ^ballooned:36647:-31.735428
 ^ballooning:71655:51.352791
 ^ballot:146366:31.574966
 ^ballots:186586:20.835709
 ^ballpark:16551:-3.391174
 ^ballyhooed:42605:29.899940
 ^balter:6402:8.640951
 ^baltimore:41046:6.597961
 ^baltsun:152072:8.176622
 ^ban:38367:9.806443
 ^banal:133956:26.556442
 ^banality:136208:26.556442
 ^banana:142255:-9.209044
 ^band:114235:-9.465444
 ^bandage:148520:-17.554623
 ^bandao:148789:-7.863322
 ^bandied:205460:-4.685937
 ^bandley:68079:-23.492771
 ^bands:250094:7.324271
 ^bandwagon:208457:15.698361
 ^bandwidth:202842:23.889324
 ^bane:16315:48.665916
 ^bang:158579:3.987098
 ^bangka:101374:20.259235
 ^bank:62331:0.482746
 ^bankers:193358:-7.726532
 ^banking:49294:-0.202974
 ^bankroll:124415:-35.030174
 ^bankrupt:141273:-23.253143
 ^bankruptcy:134461:1.419326
 ^bankrupted:134590:-57.174553
 ^banks:40350:-10.658541
 ^banned:74506:3.661939
 ^banner:47480:1.088355
 ^banners:122592:1.530523
 ^banning:89569:28.913277
 ^bans:54064:-5.122905
 ^banter:244017:-4.850805
 ^baptist:168523:5.117717
 ^bar:170381:4.313311
 ^barack:181073:4.881948
 ^barbara:60523:11.142885
 ^barber:135638:-78.903732
 ^barbiturates:96829:13.946391
 ^barbour:148674:-2.479882
 ^barcelona:228012:2.966935
 ^barclaycard:101982:13.252725
 ^barclays:172218:9.419322
 ^barcode:131537:-38.302002
 ^barcodes:123031:-13.025578
 ^bare:35848:-10.026999
 ^barebones:155940:-8.213870
 ^barefoot:213149:-1.510135
 ^barely:131717:6.465457
 ^baretta:164772:13.946391
 ^bargain:109189:-23.921085
 ^bargaining:156328:-26.983788
 ^bark:87517:0.143592
 ^barnard:12867:-13.787334
 ^barnes:9259:4.568504
 ^barney:238223:5.389785
 ^barns:105115:10.848172
 ^barometer:38813:-2.139208
 ^baron:25691:2.611311
 ^baroque:28448:-3.060785
 ^barr:157646:-9.128186
 ^barrage:230179:-2.939148
 ^barred:240749:-3.051345
 ^barrel:47010:2.863177
 ^barrels:230702:-2.617298
 ^barrett:177111:-13.340829
 ^barrier:203019:27.998434
 ^barriers:129476:-60.817265
 ^barring:171473:-7.842929
 ^barron:18123:10.189966
 ^barry:177354:-18.418079
 ^bars:167964:6.802658
 ^bartels:171079:5.418957
 ^bartender:154003:-21.430380
 ^bartley:99424:4.237751
 ^barton:305:0.819091
 ^bartsch:134044:1.305655
 ^base:198032:7.376765
 ^baseball:103533:-12.340549
 ^based:99606:6.780678
 ^baseline:177974:3.501870
 ^baselines:262:-2.344954
 ^basement:183632:0.702796
 ^bases:117022:-13.974598
 ^bash:29740:0.868868
 ^bashed:186028:24.048389
 ^bashing:168573:5.377023
 ^basic:231969:7.294948
 ^basically:146309:-4.157016
 ^basics:115637:14.872320
 ^basing:250610:24.067467
 ^basis:195272:0.041497
 ^basket:58234:-50.710766
 ^basketball:69756:13.096267
 ^baskets:68405:-24.722454
 ^bass:65788:6.488662
 ^bassist:124111:-0.411278
 ^bast:235377:-5.038935
 ^basta:7581:-35.657284
 ^bat:240695:1.499782
 ^batch:42390:1.305806
 ^batches:135234:17.385496
 ^bateman:18300:-0.012620
 ^bath:78818:51.352791
 ^bathing:175020:8.250211
 ^bathroom:9790:1.929583
 ^batman:212061:-15.211681
 ^batson:75269:4.483260
 ^battalion:16107:1.865844
 ^batter:210540:-13.745697
 ^battered:218414:14.804572
 ^batteries:257455:-2.647617
 ^batters:159671:-56.949154
 ^battery:157416:-2.158998
 ^batting:200817:-8.825554
 ^battle:103842:-2.015140
 ^battled:250020:17.755083
 ^battlefield:212661:-0.983381
 ^battlefields:88607:-31.636593
 ^battleground:191029:17.109524
 ^battles:42068:3.906259
 ^battling:81221:-0.280785
 ^bay:114117:5.337324
 ^bazaar:188870:-0.754845
 ^bazaars:57790:10.704470
 ^bazillion:154204:-39.492458
 ^bb:35287:12.569654
 ^bbc:258134:6.084759
 ^bbh:149755:0.485235
 ^bbm:88659:-20.563353
 ^bbry:84186:-5.340616
 ^bc:69964:-1.787861
 ^bcc:77964:-42.573494
 ^bcm:160309:-2.071744
 ^bcs:252155:27.456306
 ^beach:191570:-15.539684
 ^beachball:242403:-21.384111
 ^bead:9102:-24.722454
 ^beam:75436:-1.812745
 ^beamed:104465:12.535246
 ^beams:230586:-10.557310
 ^bean:51224:3.489813
 ^beans:53616:36.582928
 ^bear:97964:-2.557489
 ^bearing:161925:0.550013
 ^bearish:88505:7.518161
 ^bearishness:25535:-12.361227
 ^bears:94724:-20.055218
 ^beast:249035:-13.028645
 ^beasts:42311:5.377023
 ^beat:180168:8.509138
 ^beaten:217065:-0.832015
 ^beating:185957:6.888790
 ^beatles:79433:14.793274
 ^beats:201725:0.405058
 ^beattie:223978:-12.734245
 ^beatz:20798:51.352791
 ^beautiful:4597:5.016172
 ^beautifully:115693:-10.681486
 ^beauty:158901:12.988482
 ^bebo:138168:11.902691
 ^became:25166:19.062208
 ^bechtolsheim:122354:-19.904753
 ^beck:86303:-9.795102
 ^beckons:229411:-118.845886
 ^becky:5804:6.229231
 ^become:137737:4.290423
 ^becomes:98738:4.238581
 ^becoming:136976:3.330534
 ^becta:183844:-65.578087
 ^becton:13544:2.881207
 ^bed:47822:8.332232
 ^bedazzled:124876:14.334090
 ^bedecked:196950:14.334090
 ^bedeviling:144410:-50.766186
 ^bedhead:253779:-2.850056
 ^bedroom:144180:-14.622829
 ^bedrooms:179456:23.835325
 ^bee:256304:-9.209044
 ^beeb:75529:10.779572
 ^beecher:190032:-2.657555
 ^beef:257562:7.184371
 ^beefed:141612:15.661940
 ^beefs:211424:-5.301365
 ^beefy:124933:-18.418079
 ^beeger:216457:-23.492771
 ^beens:19831:-13.831188
 ^beeped:206192:-78.903732
 ^beers:73653:40.093071
 ^bees:240183:-7.105078
 ^beet:136559:8.696083
 ^befell:76915:2.457760
 ^beforehand:246515:0.504841
 ^befuddled:25721:-36.512745
 ^began:1991:15.336441
 ^begbroke:223763:-1.388687
 ^begged:94052:-1.844221
 ^begging:155839:-14.039357
 ^begin:26254:7.282086
 ^beginning:246909:2.114544
 ^beginnings:232709:-8.339017
 ^begins:113915:26.760088
 ^begrudgingly:145584:53.473412
 ^begs:208000:-28.579784
 ^begun:62602:5.767604
 ^behalf:215559:22.112144
 ^behave:209367:0.329351
 ^behaved:184416:12.847884
 ^behaves:251918:-9.754147
 ^behaving:163309:-20.102850
 ^behavior:203075:8.282728
 ^behaviors:45835:-8.251431
 ^behemoth:111473:15.338629
 ^behind:218022:23.026192
 ^behold:217413:5.354470
 ^beijing:44941:-0.809532
 ^belair:209564:4.088312
 ^beleaguered:106161:-37.577000
 ^belgian:123003:2.508792
 ^belgium:171825:27.948008
 ^belie:137698:-21.128382
 ^belief:30885:4.304991
 ^beliefs:113197:-2.078077
 ^belies:166969:51.352791
 ^believable:238514:3.995997
 ^believe:1954:15.207176
 ^believed:212430:5.704909
 ^believer:151395:-47.678715
 ^believes:151875:5.562083
 ^believing:159648:-5.211062
 ^belkin:136173:13.902027
 ^bell:158659:7.128212
 ^bellflower:136743:-9.209044
 ^bells:67073:22.787464
 ^bellwether:55855:20.287155
 ^belong:213677:2.051831
 ^belonged:31275:-78.903732
 ^belonging:59611:-32.158585
 ^belongs:103944:1.044241
 ^beloved:5906:5.708870
 ^belt:219357:-15.808439
 ^beltway:73013:-8.871400
 ^belvedere:5878:2.611311
 ^bemis:172252:2.863177
 ^ben:66483:24.689447
 ^benches:178639:36.244419
 ^benchmark:199002:20.774336
 ^benchmarks:80087:25.757465
 ^bend:160161:20.203409
 ^bendable:133927:-12.193653
 ^bending:2729:40.093071
 ^bendy:223083:-15.498695
 ^beneath:10677:-0.878649
 ^benedict:228229:-12.608423
 ^benedicta:228656:-78.903732
 ^beneficial:216590:-25.156778
 ^beneficially:105994:-0.353679
 ^beneficiary:133318:22.324947
 ^benefit:167977:15.679139
 ^benefited:77326:8.255710
 ^benefiting:61507:-64.647499
 ^benefits:67586:1.461337
 ^benefitted:209412:1.134941
 ^benign:134266:4.916035
 ^benioff:16270:-10.495626
 ^benkler:73099:-15.048183
 ^bennyhoff:185292:-19.980776
 ^bent:212129:-44.266525
 ^bentley:93164:-22.336491
 ^benz:116255:-0.031650
 ^benzinga:183894:6.204064
 ^beom:126786:-17.721762
 ^beos:86922:-57.174553
 ^bequeathed:133594:-9.515576
 ^berenberg:143316:-64.647499
 ^berg:250688:-33.860653
 ^beringer:67827:-21.858768
 ^berkeley:98342:-0.835845
 ^berkowitz:39081:-10.771710
 ^berkshire:251365:-3.095925
 ^berlin:147227:1.666927
 ^berman:225540:-35.983955
 ^bernanke:130129:11.608848
 ^bernard:180321:-36.175381
 ^bernardino:189114:6.503097
 ^bernay:147988:89.143082
 ^bernie:48619:-41.100006
 ^bernstein:58400:11.899038
 ^berskhire:223727:-25.143614
 ^bertazzoni:19311:11.018168
 ^bertelsmann:73224:-43.951927
 ^bes:253301:-20.563353
 ^besenius:170098:-1.287581
 ^beside:241643:4.147543
 ^besides:87395:7.183325
 ^bespoke:69205:2.224869
 ^bessette:210047:21.485062
 ^best:217305:1.591682
 ^bested:258760:17.190536
 ^besting:99107:-11.657869
 ^bestowed:142948:39.317764
 ^bests:71954:-23.197655
 ^bestseller:104841:-7.811099
 ^bestselling:185313:-13.830053
 ^bet:201028:6.144949
 ^beta:27049:2.047287
 ^betas:52833:4.242844
 ^beth:208526:26.505453
 ^bethany:120750:-34.932564
 ^bethesda:34302:21.485062
 ^betrayal:52649:4.637524
 ^bets:48356:1.761773
 ^betsy:53872:8.336320
 ^better:38356:24.091145
 ^betting:124210:8.608473
 ^beverage:6290:7.526214
 ^beverly:45475:-9.864066
 ^bevy:253494:11.068694
 ^beware:73586:-4.083383
 ^bewildering:100765:-11.811619
 ^bewkes:157110:-23.565582
 ^bexar:179187:4.049047
 ^bey:163172:2.611311
 ^beyonc:197443:11.592247
 ^beyond:27279:-1.227736
 ^bezel:190139:5.354470
 ^bezels:108613:-4.832323
 ^bezos:73308:0.687492
 ^bgc:176620:0.680072
 ^bgr:44103:-1.163181
 ^bhogal:25493:4.483260
 ^bi:3367:2.892783
 ^bianca:115119:7.546928
 ^bianrosa:199813:22.036337
 ^biao:86330:-10.668728
 ^bible:174104:0.358209
 ^biblical:129526:18.265253
 ^bibliotech:188013:8.377037
 ^bickering:78791:-3.833634
 ^bicycle:18153:-26.667540
 ^bicycles:203782:-16.579128
 ^bicyclist:180043:-53.335083
 ^bid:207868:8.607566
 ^bidded:178278:-1.356250
 ^bidder:244343:-54.323906
 ^bidding:173889:-18.383852
 ^biden:212122:7.101722
 ^bidirectional:11902:89.143082
 ^bids:30576:3.729842
 ^big:8649:8.363594
 ^bigelow:90212:-7.811099
 ^bigger:222096:6.028802
 ^biggest:24416:9.236227
 ^biggie:151994:13.946391
 ^bike:236938:-1.916051
 ^bikes:171469:-3.668823
 ^biking:12498:-23.897860
 ^bikini:247398:9.044647
 ^bilbrey:138250:-14.662605
 ^bill:90560:1.898224
 ^billable:61621:-31.800648
 ^billboard:234860:7.398939
 ^billboards:169423:23.288097
 ^billing:144337:-65.557594
 ^billion:102590:4.402977
 ^billionaire:55281:-9.037821
 ^billionaires:154894:-7.343421
 ^billions:134145:1.130872
 ^billionth:255199:-7.039845
 ^billowing:12776:-59.784500
 ^bills:23562:8.105069
 ^billy:157661:12.847884
 ^bilton:82954:5.227579
 ^bin:188852:5.092305
 ^binary:190477:-4.421163
 ^bind:197542:-4.551499
 ^binder:210406:-18.418079
 ^binding:105025:-9.797520
 ^binds:87874:20.259235
 ^bing:243277:11.032670
 ^bingo:134167:1.678604
 ^bins:173566:-8.286980
 ^bio:132093:-11.386974
 ^biochemistry:174516:-3.833634
 ^biodiversity:215364:-9.209044
 ^biofeedback:70862:-18.418079
 ^biogen:14813:-1.789267
 ^biographer:165389:32.421120
 ^biography:57240:0.903770
 ^biological:91499:12.772560
 ^biometric:86666:1.692682
 ^biometrics:261311:-11.659776
 ^bionx:169728:-53.335083
 ^biopic:237349:7.874621
 ^bios:32892:-9.673896
 ^bioshock:192290:-4.421163
 ^biotech:26587:-3.833634
 ^bipartisan:214287:-1.004550
 ^birch:108886:5.951345
 ^birds:34896:6.379158
 ^birmingham:59855:52.426388
 ^birth:202138:19.882492
 ^birthday:257043:5.522800
 ^biscuit:45105:-0.252266
 ^biscuits:132570:-3.691215
 ^bishop:188112:89.143082
 ^bit:251856:9.246621
 ^bitch:200896:-33.120907
 ^bitchin:164589:12.847884
 ^bitcoin:235182:-2.064909
 ^bite:42996:1.482180
 ^bitemyapple:13886:2.890782
 ^biting:216049:31.054825
 ^bitmapped:34623:9.142740
 ^bits:42987:4.796379
 ^bitter:249100:-13.102477
 ^bittersweet:39957:12.576158
 ^bittorrent:8211:-1.328777
 ^biweekly:174968:4.916035
 ^biz:53052:-0.012620
 ^bizarre:73231:-2.406496
 ^bizjournals:39454:11.558848
 ^bjango:4927:-6.183136
 ^bkpm:76656:-3.439796
 ^bks:262079:-15.269506
 ^bl:22018:-20.130672
 ^black:143442:8.746835
 ^blackberries:14833:-20.563353
 ^blackberry:40074:-0.039194
 ^blackberrys:12680:24.832817
 ^blacklist:249004:-29.982370
 ^blacklisted:49845:4.363250
 ^blackman:30275:-1.969691
 ^blackout:97957:14.793274
 ^blackouts:68923:24.402685
 ^blackrock:252048:-10.398907
 ^bladder:228831:13.946391
 ^blade:41078:17.556034
 ^blades:65569:5.367829
 ^blah:251296:10.724218
 ^blake:146708:15.323190
 ^blame:158880:20.987078
 ^blamed:148252:2.505171
 ^blames:238802:-6.060762
 ^blaming:238948:9.775288
 ^bland:67722:6.020958
 ^blank:184301:1.484458
 ^blankenhorn:243942:-4.998591
 ^blankenship:245803:2.457760
 ^blanket:74371:11.376279
 ^blankfein:255176:41.370308
 ^blanks:2459:-10.063366
 ^blared:112137:9.474895
 ^blast:187137:2.621088
 ^blasted:248400:-14.933117
 ^blasting:43730:-37.174225
 ^blatant:237197:-9.376066
 ^blau:175190:-0.572153
 ^blavatnik:69915:-35.030174
 ^blaze:211261:4.119795
 ^blazed:56570:37.837769
 ^blazing:194261:9.667208
 ^bleach:70470:8.676443
 ^bled:153740:5.986769
 ^bleeding:256152:11.713820
 ^bleeds:163197:1.428639
 ^bleeker:254930:-4.382904
 ^blend:168758:22.036337
 ^blended:126092:18.573315
 ^blending:230890:3.995997
 ^bless:253072:-8.373890
 ^blessing:140290:-15.019181
 ^blew:213643:10.533094
 ^blige:252561:51.352791
 ^blight:28935:21.672613
 ^blind:88980:-2.121872
 ^blindly:69805:-1.328343
 ^blink:163173:-49.652451
 ^blinken:181933:10.700345
 ^blinkfeed:107656:-5.699890
 ^blinking:209382:24.953074
 ^blip:19679:-20.837555
 ^blissfully:35918:7.376058
 ^blister:68020:15.059628
 ^blistering:157126:16.013817
 ^blisters:61499:12.804566
 ^blitz:110415:-19.297647
 ^blizzard:30336:3.789439
 ^bloated:184090:-23.197655
 ^block:31536:11.278881
 ^blockbuster:149929:-19.052895
 ^blockbusters:113723:-28.405676
 ^blocked:239892:2.498484
 ^blocker:90075:-36.672432
 ^blocking:139882:2.152584
 ^blocks:38562:10.245963
 ^blog:237506:13.448264
 ^blogger:72270:4.591975
 ^bloggers:51011:4.638339
 ^blogging:239814:-2.305545
 ^blogosphere:68977:-0.608799
 ^blogpost:165534:17.948128
 ^blogs:19476:7.734605
 ^blonde:86983:7.432946
 ^blood:5625:1.558997
 ^bloodline:19021:2.611311
 ^bloodshot:111652:-10.077871
 ^bloody:122092:-0.327421
 ^bloom:76866:16.665649
 ^bloomberg:94776:-2.187605
 ^blooming:254581:-53.335083
 ^bloomington:151416:12.847884
 ^blossom:155362:23.877985
 ^blossomed:87534:15.516262
 ^blow:101499:6.600762
 ^blowback:139284:11.083830
 ^blowing:174351:32.335773
 ^blown:183951:7.915664
 ^blowout:199131:10.553228
 ^blows:107239:1.742956
 ^blowtorch:62394:-11.069557
 ^blowup:36153:5.862053
 ^blu:46991:-1.653148
 ^bludgeoning:247848:51.352791
 ^blue:258307:3.963558
 ^blueprint:259448:18.665127
 ^blueprints:128427:23.002777
 ^bluetooth:23687:8.333440
 ^bluffing:256493:1.584078
 ^blumenthal:229739:-9.727322
 ^blunder:225950:1.793177
 ^blunders:2835:-39.492458
 ^blunt:146067:-32.233810
 ^blunted:107951:-0.201702
 ^bluntly:99286:18.265253
 ^blur:160561:-43.156094
 ^blurry:63319:33.261078
 ^blurted:174293:0.910789
 ^blush:615:6.585212
 ^blushed:11060:23.877985
 ^blushes:15944:-18.418079
 ^bluster:201905:51.352791
 ^bluth:20535:-16.327961
 ^blythe:32620:11.733145
 ^bmi:261109:-13.735630
 ^bmw:56983:-0.804975
 ^bn:22727:4.045280
 ^bny:215151:12.221008
 ^bo:91679:10.700345
 ^board:19965:1.634059
 ^boarded:70697:-10.539785
 ^boarding:68600:38.393688
 ^boardroom:228066:-18.344738
 ^boardrooms:39545:-37.577000
 ^boards:84219:24.934240
 ^boast:177215:2.648808
 ^boasted:142016:17.746084
 ^boastful:25079:14.340054
 ^boasting:215171:-9.567135
 ^boasts:51465:-19.038538
 ^boat:185792:20.512983
 ^boatloads:145140:-3.751159
 ^boats:113371:10.553228
 ^bob:228338:12.165118
 ^bobak:98379:14.380221
 ^bobby:218676:-4.959763
 ^bocko:12777:-0.565021
 ^bode:49744:-18.753281
 ^bodies:253762:-0.320090
 ^body:22953:10.169770
 ^boeck:243854:22.036337
 ^boehner:101197:2.881207
 ^boeing:253645:8.954727
 ^bogdanovich:194264:13.946391
 ^bogus:203621:5.538735
 ^boi:160471:0.250367
 ^boil:12571:-0.738243
 ^boilerplate:121976:-12.884544
 ^boilesen:81477:-2.181147
 ^boils:144065:-7.748926
 ^boing:110211:-5.403800
 ^boise:18951:27.456306
 ^boken:161104:-19.725933
 ^bold:139455:15.702554
 ^bolding:233442:-21.430380
 ^boldly:113148:-15.048183
 ^bolster:255575:15.619797
 ^bolstered:127112:-71.541115
 ^bolstering:219032:-0.262341
 ^bolt:26358:-18.308432
 ^bolting:170729:-9.020523
 ^bolts:248294:12.804566
 ^bomb:53493:16.683266
 ^bona:42148:-10.712074
 ^bonanza:36179:-1.684918
 ^bond:144889:19.559692
 ^bonded:109204:12.266289
 ^bondholders:206973:-51.675957
 ^bonds:200128:-9.928770
 ^boneheaded:159620:-17.684660
 ^bones:56566:12.804566
 ^bongo:214762:-9.747219
 ^bonneville:227987:-8.963307
 ^bonnie:136739:13.946391
 ^bonus:202844:12.645486
 ^bonuses:130825:26.689293
 ^boo:52061:0.319803
 ^boobs:75095:12.804566
 ^boogied:28444:2.611311
 ^book:15630:3.739489
 ^booked:128720:-7.262741
 ^booking:138660:-48.132904
 ^bookings:179428:-5.450830
 ^bookkeeping:173947:16.557117
 ^bookless:243740:1.654815
 ^bookmark:46080:-1.084442
 ^bookmarked:24165:-18.418079
 ^bookmarks:184702:-32.462463
 ^books:200410:1.689418
 ^bookseller:173670:-13.855165
 ^bookshelf:205875:3.135201
 ^bookshelves:61421:3.135201
 ^bookshop:205683:-15.269506
 ^bookstore:252902:-3.011542
 ^bookstores:182385:-5.774576
 ^boom:31873:-3.130775
 ^booming:94171:-0.461294
 ^boon:31660:-22.696491
 ^boost:113438:6.387020
 ^boosted:177276:0.249824
 ^boosting:260758:1.989949
 ^boosts:76609:-0.390423
 ^boot:62785:-0.872531
 ^bootable:193835:-26.733448
 ^bootcamp:29424:8.565351
 ^booted:106995:-32.225334
 ^booth:234769:3.225277
 ^boothless:230665:1.264662
 ^booths:170202:9.044647
 ^booting:172962:5.588400
 ^boots:80256:-2.571864
 ^bootstrapping:126372:-15.943381
 ^booze:56573:12.804566
 ^border:50080:13.280263
 ^bordered:224629:-78.903732
 ^bordering:240056:0.909799
 ^borders:9483:12.807494
 ^bore:206442:6.198155
 ^bored:112849:7.748384
 ^boring:76420:8.503789
 ^borland:63341:4.729651
 ^born:226608:4.776064
 ^borne:199838:-11.069557
 ^borrow:203602:7.660131
 ^borrowed:181340:23.403372
 ^borrowing:54949:6.253327
 ^borrows:25368:10.553228
 ^boschee:193453:-2.626956
 ^boschees:148399:11.275887
 ^bose:212898:51.352791
 ^bosker:110775:7.546928
 ^boss:81652:9.901236
 ^bossa:24755:44.072674
 ^boston:206783:1.307821
 ^bostonglobe:231689:-10.631851
 ^botanical:102180:-18.418079
 ^botany:159486:-9.209044
 ^botched:115279:-11.595539
 ^bother:69013:21.176828
 ^bothered:100107:7.865562
 ^bothers:30649:-0.767164
 ^bottle:167675:-0.628830
 ^bottlenecks:154634:-59.784500
 ^bottling:3090:1.398398
 ^bottom:121443:11.292682
 ^bottomed:112253:9.539869
 ^bottoms:58222:9.044647
 ^boudreau:135581:-38.486664
 ^bought:178618:2.641908
 ^boulder:84288:1.969338
 ^boulevard:254229:15.840746
 ^bounce:143663:0.066816
 ^bounces:241334:5.049005
 ^bouncy:19032:0.485235
 ^bound:251998:-1.943638
 ^boundaries:94678:-1.996156
 ^bounds:136333:-28.354286
 ^bountiful:55378:14.340054
 ^bounty:175008:4.719148
 ^bourret:103419:26.213194
 ^bout:1571:-7.853198
 ^boutique:239947:-17.172642
 ^bouts:60302:-21.430380
 ^bow:102784:18.227732
 ^bowl:179953:5.210072
 ^bowling:202701:-43.951927
 ^bowls:196210:7.835938
 ^box:161659:9.427131
 ^boxee:169158:-9.092648
 ^boxer:234241:-4.959763
 ^boxes:24190:12.013373
 ^boxing:208028:16.338161
 ^boxy:22757:15.280667
 ^boy:101789:1.904356
 ^boyfriend:13719:1.474721
 ^boyle:222761:-12.794918
 ^boys:53450:-0.142317
 ^bp:18483:1.001632
 ^bpm:226331:-10.020266
 ^br:75950:0.440543
 ^brace:148586:79.521042
 ^braced:184522:11.608848
 ^bracelet:165641:-0.617417
 ^bracket:112508:-45.311935
 ^brad:72199:3.982870
 ^bradley:72459:10.023270
 ^brady:165513:-0.893611
 ^brag:204979:56.435436
 ^bragged:101210:1.368860
 ^bragging:190763:-1.229526
 ^braid:122392:18.265253
 ^brain:250669:6.265675
 ^brainchild:194072:-1.261039
 ^brainer:31786:5.905599
 ^brains:236126:-28.638140
 ^brake:87756:38.423260
 ^brakes:254790:-5.380841
 ^branch:242745:18.556379
 ^branched:13934:-18.418079
 ^branches:156348:0.862453
 ^branchout:258573:-38.235458
 ^brand:202697:4.428788
 ^branded:29044:13.065802
 ^branding:214901:-5.435972
 ^brandishing:195391:-1.691022
 ^brando:199949:13.946391
 ^brands:156821:4.135231
 ^brandy:25755:8.348894
 ^brandywine:75452:-36.512745
 ^brasilia:57512:2.005036
 ^brass:153036:-27.737068
 ^bravado:108386:-20.125122
 ^brave:216082:-5.751028
 ^braved:119931:12.847884
 ^bravery:118277:40.093071
 ^bravia:227039:37.837769
 ^brawl:209849:-12.884544
 ^brawls:80171:-8.394053
 ^brazen:92759:-10.186666
 ^brazil:80126:0.097103
 ^brazilia:10418:2.611311
 ^brazilian:261973:-2.735974
 ^brcm:117947:-5.642105
 ^breach:198247:5.810671
 ^breached:228492:-4.579836
 ^breaches:73761:3.726110
 ^bread:134639:-6.926256
 ^breadth:27047:-21.469336
 ^breadwinner:208569:18.285480
 ^break:12775:8.358100
 ^breakathon:153590:-4.937905
 ^breakdown:251450:2.348238
 ^breaker:148866:-33.001251
 ^breakers:208895:15.280667
 ^breakfast:102825:5.938550
 ^breaking:126842:8.440456
 ^breakneck:24437:-46.978844
 ^breakout:188830:-3.707946
 ^breaks:181444:-14.122097
 ^breakthrough:234839:-1.865904
 ^breakthroughs:17242:5.005865
 ^breakup:127121:48.263573
 ^breast:33929:-18.418079
 ^breath:144488:-12.356035
 ^breathe:145207:-59.784500
 ^breathes:33751:-16.327961
 ^breathing:56004:4.571754
 ^breathless:63322:19.524605
 ^breathtaking:77545:-9.575126
 ^breatkthrough:202734:1.475529
 ^bred:114576:-4.604521
 ^breed:24112:-9.209044
 ^breeder:230098:-18.418079
 ^breeders:101226:-1.741091
 ^breeding:75416:-3.068482
 ^breeds:134230:-10.332637
 ^breen:257414:-3.899348
 ^breeze:229929:7.103753
 ^breezed:238195:53.473412
 ^breitling:71987:-13.001289
 ^brenda:62918:8.676443
 ^brendan:91809:-4.548968
 ^brennan:175346:13.526955
 ^brent:160895:34.089447
 ^bresnahan:6140:-15.048183
 ^bret:256675:15.949342
 ^brethren:149430:-66.284554
 ^brett:199381:-14.662605
 ^brewed:249716:-28.579784
 ^brewer:207203:-6.938451
 ^brewery:115951:20.046530
 ^brewing:103952:-4.563578
 ^brian:255228:7.455195
 ^bribery:56483:0.026687
 ^bribes:216475:4.705987
 ^bribing:153019:28.233910
 ^brick:143734:-0.365260
 ^bricking:244149:-44.266525
 ^bricks:146228:3.351478
 ^bridge:236646:7.183396
 ^bridger:126648:4.932348
 ^bridges:214401:-20.040531
 ^bridgestone:236767:3.676774
 ^brief:154984:12.454075
 ^briefed:137891:1.754142
 ^briefing:227991:6.202583
 ^briefly:206802:-2.853403
 ^briefs:139061:1.440603
 ^brigadier:81708:7.382193
 ^bright:169441:-3.347830
 ^brightest:4283:-6.203465
 ^brightness:48794:10.158010
 ^brightwire:29562:-4.408500
 ^brilliance:11008:26.556442
 ^brilliant:115716:3.835948
 ^brin:116721:-15.665753
 ^bring:220043:14.811119
 ^bringing:119445:3.303815
 ^brings:107216:15.323498
 ^brink:218782:-2.495370
 ^brisk:192881:-55.925060
 ^bristled:123449:1.804864
 ^bristles:67491:19.219479
 ^bristol:110644:2.666917
 ^brit:163492:11.902691
 ^britain:76059:-28.094978
 ^british:222505:4.186885
 ^brittell:113456:-31.636593
 ^brittle:103931:-11.925226
 ^brk:16295:-43.951927
 ^broad:103514:0.861147
 ^broadband:9713:-4.466747
 ^broadcast:222031:5.716463
 ^broadcaster:178015:5.418957
 ^broadcasters:115068:-17.554623
 ^broadcasting:174186:-9.695833
 ^broadcom:23161:13.970102
 ^broaden:87052:-43.678345
 ^broadened:23450:26.474369
 ^broadening:182812:-9.499259
 ^broader:203627:11.531746
 ^broadest:185326:15.280667
 ^broadly:91312:2.553082
 ^broadness:52986:-38.235458
 ^broadway:22245:12.809442
 ^brochure:109400:-23.936678
 ^brochures:67977:-3.381151
 ^broke:227544:9.696800
 ^broken:150415:-8.339497
 ^broker:131961:0.750485
 ^brokerage:202798:1.630273
 ^brokerages:257753:-9.789648
 ^brokers:156888:13.927393
 ^bromance:98729:9.813087
 ^bronco:175828:13.946391
 ^brondmo:144101:7.390540
 ^bronx:169312:-26.296593
 ^brooklyn:228245:6.532653
 ^bros:124773:13.946391
 ^brother:65930:2.392211
 ^brothers:157739:-5.916614
 ^brought:84347:12.202003
 ^browett:191736:5.646904
 ^brown:237056:-0.486928
 ^browne:29916:-2.875024
 ^browning:50157:-18.418079
 ^brownish:55287:19.020599
 ^brows:94550:-20.615856
 ^browse:178803:-1.132962
 ^browsed:126249:-2.657555
 ^browser:88862:2.745589
 ^browsers:227249:-1.248000
 ^browsing:51909:8.142580
 ^bruce:138445:3.850255
 ^bruised:45964:-7.859847
 ^bruises:40854:13.946391
 ^bruising:150988:-20.497028
 ^brunner:243779:4.483260
 ^brunt:248884:-11.069557
 ^brush:112698:-15.928997
 ^brushed:52750:-9.367929
 ^brutal:68389:-1.166150
 ^brute:142953:-2.650683
 ^bryan:208121:9.813087
 ^bryant:242079:26.213194
 ^bs:73281:1.656651
 ^bsd:59736:-20.975672
 ^bt:220282:8.938125
 ^btig:100129:5.019142
 ^btrfs:152004:-4.741960
 ^btu:212118:11.215045
 ^btus:261459:-2.987763
 ^bu:95962:-19.243332
 ^bubble:109207:8.706774
 ^bubbling:223137:22.262627
 ^bubbly:74099:-0.654842
 ^buch:38352:-11.045959
 ^buck:110523:-10.266068
 ^bucking:256119:23.270130
 ^buckingham:183009:19.047882
 ^buckle:151126:30.638288
 ^buckley:144967:1.308275
 ^buckling:51630:29.141796
 ^buckmaster:67781:-6.905770
 ^bucks:206635:8.557580
 ^budded:56907:9.813087
 ^buddies:62138:16.417923
 ^budding:56261:13.123734
 ^buddy:165018:8.036964
 ^budget:187979:6.360082
 ^budgets:162768:-39.492458
 ^buds:169316:0.214193
 ^buffer:62760:3.771498
 ^buffered:236310:-15.048183
 ^buffet:128034:-19.024736
 ^buffett:195309:-6.569200
 ^buffs:173057:1.689933
 ^buford:221383:6.833551
 ^bug:145448:4.820960
 ^bugaboo:167792:-5.694144
 ^bugbear:111111:-62.905830
 ^buggy:103298:8.949067
 ^bugreporter:234879:23.614906
 ^bugs:250543:0.398129
 ^build:177217:3.073764
 ^builder:224383:9.710845
 ^builders:92221:-3.707812
 ^building:120723:11.410314
 ^buildings:127499:-0.140402
 ^builds:86951:3.711512
 ^built:205153:6.556009
 ^bulbs:61344:12.469946
 ^bulge:9350:2.636790
 ^bulging:199706:8.323938
 ^bulk:11288:8.400860
 ^bulking:8824:-11.062508
 ^bulky:242813:-11.913223
 ^bull:159124:-11.126551
 ^bullet:254403:-9.451838
 ^bulletin:145942:-57.360046
 ^bullets:195601:-10.207729
 ^bullhorn:60019:-38.235458
 ^bullish:236656:-0.270351
 ^bullishly:33270:-8.275772
 ^bullishness:687:-16.455799
 ^bulls:148793:0.098920
 ^bullseye:101216:-2.698032
 ^bullshit:187669:9.474895
 ^bullying:114352:8.676443
 ^bulova:186231:-6.500643
 ^bum:82983:-1.559191
 ^bumbling:242221:-10.332637
 ^bumgarner:31927:40.093071
 ^bump:204392:34.415390
 ^bumped:53390:1.463018
 ^bumper:94236:-5.064384
 ^bumping:197086:2.351852
 ^bumps:200936:0.073492
 ^bunch:151638:0.051493
 ^bundestag:121115:-43.951927
 ^bundle:17029:-16.458557
 ^bundled:153009:-2.609276
 ^bundling:232629:-16.731030
 ^bungeishunju:7578:-21.115667
 ^bunszel:202738:-7.225028
 ^buoyant:168163:-32.233810
 ^burberry:170698:-5.450830
 ^burden:191842:-4.422693
 ^burdened:153818:-19.134783
 ^burdensome:64891:30.713060
 ^bureau:21409:-0.235631
 ^bureaucracies:178325:-32.657158
 ^burgeoning:198380:6.226006
 ^burger:18660:8.108088
 ^burglar:221498:1.671981
 ^burglars:210423:8.052035
 ^burglary:15113:9.372620
 ^buried:86209:14.249767
 ^burkhardt:126109:-6.661049
 ^burl:80996:8.176622
 ^burlison:96839:-0.828643
 ^burman:101145:17.111404
 ^burn:61581:-20.006575
 ^burned:229344:-10.344075
 ^burnett:141525:8.176622
 ^burning:137278:2.272727
 ^burnish:61741:-46.978844
 ^burns:213097:7.512563
 ^burnt:85917:-5.301365
 ^burrows:187229:-63.395111
 ^burst:213314:2.629119
 ^bursting:231279:-12.352470
 ^bury:167635:-31.800648
 ^bus:22933:-1.542580
 ^buses:146653:2.112526
 ^bush:250000:3.812158
 ^bushes:17722:2.913280
 ^bushfire:217909:0.863708
 ^business:260043:4.858744
 ^businesses:192474:12.881330
 ^businessweek:172587:-2.917051
 ^busses:60141:5.350173
 ^bust:203233:-9.256897
 ^busted:246247:11.186529
 ^buster:228556:13.946391
 ^busting:12147:-9.020523
 ^bustling:22492:4.929571
 ^busy:118455:16.651375
 ^butler:104306:44.072674
 ^butt:154212:-13.418256
 ^butter:250432:2.494802
 ^butterfly:2714:89.143082
 ^butters:244407:4.134059
 ^button:192130:7.191089
 ^buttoned:40010:-44.051014
 ^buttons:222945:-1.515703
 ^buttress:192116:17.534924
 ^buy:108195:3.450383
 ^buyback:129171:1.703979
 ^buybacks:163348:-5.190227
 ^buyer:115616:-6.497821
 ^buyers:134575:7.676066
 ^buying:10992:9.458969
 ^buyout:241902:-6.335837
 ^buys:50533:7.422129
 ^buzz:214428:20.629108
 ^buzzing:178284:8.250211
 ^buzzword:75664:-22.326845
 ^buzzwords:20874:-28.579784
 ^bwomack:20363:-64.647499
 ^bye:218300:9.633842
 ^bygone:49651:-9.880892
 ^bylaws:180316:-56.949154
 ^byline:241893:-2.565579
 ^byod:90484:-6.740462
 ^bypass:181239:0.897902
 ^bypassed:151494:-36.436150
 ^bypasses:162811:-2.657555
 ^bypassing:13530:-60.817265
 ^byrnes:67532:-18.195871
 ^byte:96788:14.793274
 ^byung:34003:37.091972
 ^byzantine:72700:-12.884544
 ^c:185951:7.936631
 ^ca:132656:-4.867181
 ^caa:220498:-7.811099
 ^cabal:96258:-23.565582
 ^cabinet:34913:-14.250755
 ^cabinets:207273:44.072674
 ^cable:17100:2.987312
 ^cables:223044:3.117481
 ^cablevision:60227:4.163170
 ^cabling:167586:28.033073
 ^cabos:33143:19.524605
 ^cabot:97302:4.009350
 ^cache:27440:-1.292966
 ^caches:141974:16.750563
 ^cachet:180572:16.550629
 ^caching:219159:-3.042813
 ^cadence:33361:-0.654842
 ^cadillac:180460:-11.324354
 ^cadogan:255819:-36.712193
 ^cadre:222191:-7.479873
 ^caesars:19137:2.254380
 ^cafe:49985:7.662706
 ^cafes:187678:-36.712193
 ^cafeteria:90019:-17.309858
 ^cages:250334:6.229231
 ^cagey:138151:4.441371
 ^cagr:160422:11.558848
 ^caicos:206970:22.311281
 ^cajoling:90272:40.093071
 ^cake:128396:7.254715
 ^cal:51045:-30.172079
 ^calcalist:107320:-5.531255
 ^calcharge:21679:-42.573494
 ^calculate:158926:-13.595932
 ^calculated:149428:-16.564697
 ^calculating:200385:-11.885568
 ^calculation:104082:-50.700039
 ^calculations:67513:-32.186424
 ^calculator:50564:-3.400739
 ^calculus:9142:22.359159
 ^caldwell:24332:-3.899348
 ^calendar:252485:6.888143
 ^calendars:202946:1.081864
 ^calibrated:225462:3.941376
 ^calibration:41352:-1.821329
 ^calif:128610:4.575363
 ^california:39523:3.608102
 ^californian:135624:-62.991585
 ^call:158062:9.598248
 ^called:242292:20.987148
 ^caller:148701:8.667418
 ^callers:117090:5.499069
 ^calling:87971:2.090457
 ^callous:147839:-10.659200
 ^calls:250764:4.805684
 ^calm:56930:9.831713
 ^calmed:258605:-14.933117
 ^calories:236974:-53.335083
 ^calpers:214471:1.175760
 ^caltech:129944:40.093071
 ^caltrain:115177:8.450105
 ^cam:200575:-9.673896
 ^cambiar:62087:-4.894824
 ^cambodia:47800:-11.776632
 ^cambridge:25453:-1.012137
 ^came:73132:19.289904
 ^cameos:178259:-28.405676
 ^camera:110644:2.666917
 ^cameras:189021:2.061631
 ^camino:137256:61.439209
 ^camp:187148:-3.573197
 ^campaign:73828:12.419178
 ^campaigners:236026:-18.516550
 ^campaigning:77685:4.879946
 ^campaigns:25479:16.413647
 ^campbell:79813:-6.208365
 ^camped:797:3.199301
 ^campos:251401:-78.903732
 ^camps:19814:40.093071
 ^campus:180718:2.364208
 ^campuses:130033:14.261538
 ^cana:82776:19.524605
 ^canaccord:87710:-4.343720
 ^canada:5705:-1.565816
 ^canadian:133837:2.288898
 ^canal:88858:11.618448
 ^canals:152243:3.873906
 ^canalys:232231:0.432216
 ^cancel:93996:-8.314404
 ^canceled:70375:-4.749228
 ^cancellation:238983:-31.707970
 ^cancelled:64643:-4.741960
 ^cancer:134817:11.224817
 ^cancun:75645:9.762302
 ^candid:226435:11.184994
 ^candidate:72533:8.499999
 ^candidates:102089:7.888432
 ^candle:229409:-33.001251
 ^canned:247979:-29.892252
 ^cannes:70724:-7.811099
 ^cannibalisation:259911:0.159901
 ^cannibalization:30664:-13.550033
 ^cannibalize:76618:-19.325796
 ^cannibalizing:174422:13.106299
 ^cannistraro:61978:-14.901726
 ^cannot:8727:1.423908
 ^cano:70287:4.606049
 ^canonical:195659:36.388206
 ^canteen:204499:8.239592
 ^cantilever:37891:-6.183136
 ^canvas:174974:3.375107
 ^cap:219451:0.614004
 ^capabilities:208123:11.597715
 ^capability:145451:-4.158601
 ^capable:5948:2.718931
 ^capacitance:89910:0.183597
 ^capacities:213182:9.829554
 ^capacitive:28090:-0.121727
 ^capacitively:109378:12.513884
 ^capacitor:43849:89.143082
 ^capacitors:91675:44.571541
 ^capacity:155429:-0.608210
 ^capex:117173:8.208214
 ^capita:239315:-54.657013
 ^capital:56167:4.253501
 ^capitalism:31777:-30.136314
 ^capitalist:27647:12.120144
 ^capitalists:96854:-22.041325
 ^capitalization:158145:-7.504027
 ^capitalize:219469:-20.198240
 ^capitalized:141230:-45.577991
 ^capitalizes:236581:7.379358
 ^capitalizing:254959:-18.283504
 ^capitol:23736:-6.582596
 ^capitulating:212606:-36.806553
 ^capitulation:230216:-8.240817
 ^capped:20518:46.140179
 ^capping:104725:13.583178
 ^capps:168500:-11.866069
 ^caps:237458:-3.545851
 ^capsule:106144:0.014180
 ^capsules:44603:-3.782428
 ^capt:87778:8.676443
 ^captain:176560:1.387442
 ^captioning:170676:21.097488
 ^captivates:247775:10.553228
 ^capture:111000:6.041547
 ^captured:36804:2.997701
 ^captures:164845:-7.478762
 ^capturing:12002:5.186006
 ^capx:183350:79.521042
 ^car:29162:4.253540
 ^cara:160941:37.091972
 ^caray:193812:5.418957
 ^carbon:226700:-17.912836
 ^carbs:164608:-14.581131
 ^carcinogen:104009:8.250211
 ^card:16593:4.777947
 ^cardboard:14691:23.657764
 ^cardinal:168123:25.347767
 ^cards:174795:2.282718
 ^care:245361:-5.517813
 ^cared:15547:8.565351
 ^career:144560:10.418831
 ^careful:10394:1.523844
 ^carefully:145415:-11.066648
 ^caregivers:252186:-10.077871
 ^carelessly:185299:10.848172
 ^cares:255201:-2.110867
 ^carey:152147:4.695477
 ^cargo:164810:-0.612045
 ^caribbean:3999:12.897754
 ^caricature:73162:-18.418079
 ^carine:607:16.726492
 ^caring:30216:-1.196887
 ^carl:104852:-3.327336
 ^carlo:38057:-4.873988
 ^carlos:174356:-12.794918
 ^carlsbad:74459:0.136952
 ^carlson:257578:-19.980776
 ^carmaker:116734:4.366451
 ^carmakers:141456:-0.909588
 ^carmen:15432:6.973196
 ^carnations:76712:-78.903732
 ^carnegie:134335:22.867804
 ^carney:248096:-0.767164
 ^carnival:225077:1.121360
 ^carol:257396:14.048301
 ^carolina:223137:22.262627
 ^caroline:218145:-14.901726
 ^carolyn:17330:-1.163795
 ^carpet:143734:-0.365260
 ^carrie:32086:-6.397460
 ^carried:6417:9.325421
 ^carrier:224217:3.382187
 ^carriers:99328:-3.098712
 ^carries:129604:5.479242
 ^carroll:85830:2.163837
 ^carrollton:34007:7.218512
 ^carrot:134341:-1.510135
 ^carry:13158:10.049337
 ^carrying:127996:-9.398848
 ^cars:115439:13.106722
 ^carson:99330:-1.557144
 ^cart:16021:6.454581
 ^carte:105322:-16.327961
 ^cartels:183730:-78.903732
 ^carter:55412:2.295932
 ^carting:57622:-21.384111
 ^cartographers:66581:28.666962
 ^cartographic:61707:29.562160
 ^cartography:146616:14.781080
 ^cartons:105964:15.059628
 ^cartoon:245186:-7.288044
 ^cartoonish:193846:-18.418079
 ^cartoons:214718:37.837769
 ^caruso:230650:-35.983955
 ^carve:201668:0.319803
 ^carved:31734:-6.587610
 ^carves:216903:-30.172079
 ^carving:141974:16.750563
 ^casa:126470:2.611311
 ^cascading:9337:47.712181
 ^case:238286:10.036435
 ^cases:204502:4.585084
 ^casetek:23194:0.036928
 ^cash:166165:2.425394
 ^cashier:87227:3.199301
 ^cashing:55192:-31.800648
 ^casing:243410:20.813850
 ^casings:186700:26.220106
 ^casino:40497:19.524605
 ^casio:79756:0.363582
 ^cassagnol:248428:9.447548
 ^cassese:91371:-5.199453
 ^cassette:193714:21.421570
 ^cassidy:73310:11.902691
 ^cassognal:109516:0.484290
 ^cast:14019:-10.969037
 ^casting:54920:2.611311
 ^castle:20877:-2.927951
 ^castles:237881:27.078403
 ^castro:116913:3.831353
 ^casts:219713:-41.779472
 ^casual:234459:-1.963409
 ^casually:162396:6.663626
 ^casualties:107149:-31.636593
 ^cat:38695:2.280036
 ^catalog:86389:-6.424913
 ^catalogs:121165:11.214587
 ^catalyst:81797:-13.440184
 ^catalysts:175711:-12.617315
 ^catapult:110532:-20.121330
 ^catastrophic:172145:41.611496
 ^catch:261498:-1.640718
 ^catches:122152:22.186771
 ^catching:147119:-6.600580
 ^catchy:37414:-10.689992
 ^categories:258449:-6.334753
 ^categorization:58541:-10.332637
 ^categorized:35149:-19.664093
 ^category:221118:1.029627
 ^cater:40353:-9.879583
 ^catering:8256:9.822561
 ^caterpillar:209059:-23.145401
 ^caters:227587:-5.805180
 ^cathartic:217995:-0.037142
 ^cathedral:81979:-15.048183
 ^cathy:211196:-78.903732
 ^catmull:67712:-8.825554
 ^cats:124734:3.216097
 ^catwalk:242841:2.611311
 ^caucus:110916:-9.116614
 ^caughey:128168:-0.510826
 ^caught:31644:15.439863
 ^causal:177933:2.943282
 ^cause:120761:18.323330
 ^caused:22108:7.109715
 ^causeing:153585:3.789439
 ^causes:212776:-3.487467
 ^causing:35307:11.433692
 ^caution:194126:22.023840
 ^cautioned:16788:2.934586
 ^cautions:157567:-0.448481
 ^cautious:202524:27.343342
 ^cautiously:156804:-61.684643
 ^cavalier:221310:-21.430380
 ^caveat:194880:-7.188797
 ^caveats:229486:3.312876
 ^cavity:141154:1.157447
 ^cavn:165536:-10.668728
 ^cavorting:149816:13.946391
 ^cayenne:212624:-10.458899
 ^cayunga:59712:6.503097
 ^cbbc:104995:10.779572
 ^cbe:45729:-8.284592
 ^cbp:9278:3.897462
 ^cbs:41384:8.546426
 ^cbsla:252749:6.503097
 ^cd:262036:18.027512
 ^cdg:69986:-78.903732
 ^cds:180284:-6.088193
 ^cdt:17519:-15.498695
 ^cea:257960:3.583523
 ^cease:52299:-9.737011
 ^ceased:217903:28.793354
 ^ceasing:43050:9.287128
 ^cebp:223078:-18.087690
 ^cecilia:71287:8.176622
 ^cedar:251377:40.093071
 ^cedars:41673:13.946391
 ^ceded:64103:-8.985088
 ^cedes:39700:-15.269506
 ^ceding:170232:-18.283504
 ^cedric:129503:3.995997
 ^cee:7643:-12.794918
 ^cef:134234:-24.722454
 ^cefs:84052:-8.879378
 ^ceiling:46089:22.015158
 ^ceilings:90933:6.992778
 ^celebrate:4035:17.183704
 ^celebrated:100065:-31.717081
 ^celebrates:250564:8.889721
 ^celebrating:106548:1.305655
 ^celebration:114655:11.643375
 ^celebrities:223076:21.201637
 ^celebrity:15647:29.952839
 ^celiac:173559:-1.118593
 ^cell:110126:32.323112
 ^cellphone:44890:-2.229853
 ^cells:173006:11.955142
 ^cellucci:165866:2.881207
 ^cellular:99980:1.196353
 ^cement:50332:17.142456
 ^cemented:95763:-2.344954
 ^censorship:63363:-0.271854
 ^cent:12125:1.292671
 ^centenarian:222004:40.093071
 ^center:76240:3.864785
 ^centered:93994:-2.654124
 ^centeredness:61565:10.552686
 ^centering:135918:-1.402382
 ^centers:96191:6.030778
 ^central:97408:8.603215
 ^centralize:192133:-23.492771
 ^centralized:171345:9.486558
 ^centre:147028:1.727416
 ^centred:57288:-53.335083
 ^centric:2067:4.949728
 ^cents:34604:2.851223
 ^centuries:205102:-33.028542
 ^century:131376:-1.507627
 ^ceo:118192:5.174726
 ^ceos:140674:-2.249270
 ^ceramic:83603:-18.418079
 ^ceramicists:122374:-18.418079
 ^ceramics:154037:-4.604521
 ^cerebral:176742:11.711452
 ^ceremonies:202321:8.176622
 ^ceremony:257273:9.264348
 ^cert:2963:-7.868188
 ^certain:102398:3.006459
 ^certainly:217676:14.280659
 ^certainty:232519:20.664589
 ^certificate:109115:1.902816
 ^certification:231361:14.622373
 ^certifications:186587:-23.200756
 ^certified:87515:13.014521
 ^certifies:148996:-10.077871
 ^certify:193649:31.980524
 ^cerulean:122022:-18.418079
 ^ces:123725:10.044913
 ^cfa:90664:0.382983
 ^cfo:256194:5.880630
 ^ch:228062:-5.038935
 ^chaffin:198668:9.813087
 ^chagrin:139573:-4.566893
 ^chahal:53411:18.846855
 ^chai:174217:1.475529
 ^chain:240124:5.632804
 ^chained:255452:37.837769
 ^chaining:219070:21.152231
 ^chains:40926:-11.634550
 ^chair:248966:-20.183243
 ^chairman:112983:4.051090
 ^chairmen:190343:-57.360046
 ^chairs:49367:11.108793
 ^challenge:125504:3.821022
 ^challenged:33682:-35.067757
 ^challenger:169200:7.370216
 ^challengers:141512:8.336500
 ^challenges:20146:-11.812407
 ^challenging:8700:6.511951
 ^chamber:29804:-9.245281
 ^chambers:243308:9.926451
 ^champ:233020:-19.980776
 ^champagne:151999:3.976073
 ^champion:228354:3.731184
 ^championed:199264:-15.191145
 ^championing:168048:6.545964
 ^champions:193883:10.058352
 ^championship:182526:4.621275
 ^championships:97351:6.049837
 ^chan:13296:20.259235
 ^chance:202813:11.376407
 ^chancellor:56745:0.565487
 ^chances:197343:-15.856338
 ^chang:102807:3.573840
 ^change:220003:8.083766
 ^changeable:140267:-22.719414
 ^changed:65887:14.650943
 ^changer:204414:7.991028
 ^changers:120707:-26.188496
 ^changes:67966:6.668182
 ^changin:252780:-1.223797
 ^changing:198169:6.666681
 ^channel:22743:2.888332
 ^channels:38388:-0.115929
 ^channing:77524:-1.641459
 ^chanted:16813:-14.933117
 ^chao:36525:4.238344
 ^chaos:102927:14.440438
 ^chaotic:58654:-29.982965
 ^chapel:66324:0.462194
 ^chaplin:153692:3.486597
 ^chapman:69713:17.298870
 ^chapter:105876:4.864824
 ^chapters:123493:-78.903732
 ^character:51878:3.191689
 ^characteristic:228943:-18.418079
 ^characteristics:25112:9.724130
 ^characterization:255062:42.629288
 ^characterized:160172:-3.650249
 ^characterizes:52467:5.223457
 ^characters:54127:-0.683196
 ^charge:243694:4.685027
 ^charged:87873:12.208958
 ^charger:156852:-6.485244
 ^chargers:113366:4.840410
 ^charges:26661:2.968096
 ^charging:41102:-2.827153
 ^chariots:210905:-7.232529
 ^charisma:159784:12.847884
 ^charitable:205574:-5.052031
 ^charity:113988:3.904755
 ^charles:226735:0.405761
 ^charlie:132119:7.096274
 ^charm:78592:-26.885498
 ^charmed:53355:2.457760
 ^charming:141039:19.996387
 ^charms:226076:-18.418079
 ^chart:202457:4.157228
 ^charted:148951:-7.225028
 ^charter:92151:-0.780074
 ^charting:13524:6.676697
 ^charts:29813:7.733210
 ^chase:118713:-1.270386
 ^chased:151703:-7.398358
 ^chasing:214414:8.973423
 ^chasis:23104:-9.673896
 ^chasm:259315:37.091972
 ^chassis:59461:28.564882
 ^chat:173353:-5.155101
 ^chats:238911:29.032833
 ^chatter:73556:-12.824417
 ^chattering:103973:-20.527542
 ^chatting:226943:-13.939600
 ^chaudhri:176594:13.475351
 ^chauffeur:188030:-1.388687
 ^chazz:84025:12.847884
 ^cheap:208965:12.837566
 ^cheaper:166472:5.255149
 ^cheapest:217546:2.865166
 ^cheaply:86786:-29.071697
 ^cheapo:179345:0.319803
 ^cheat:116435:7.266416
 ^cheated:37400:-1.870522
 ^cheater:92374:-3.741043
 ^cheating:140836:2.611311
 ^cheats:1047:9.632075
 ^check:95007:8.630825
 ^checkbox:250614:-11.810434
 ^checkboxes:66407:-9.920153
 ^checked:202285:15.092200
 ^checkered:180406:-10.712074
 ^checking:101503:5.478885
 ^checklist:53856:-2.535648
 ^checkout:88023:6.502790
 ^checks:162035:-0.519153
 ^checksumming:6425:-4.741960
 ^cheeky:137889:-11.776632
 ^cheer:251334:-7.620066
 ^cheerful:208567:2.535168
 ^cheerlead:87556:10.579783
 ^cheers:60572:-7.232529
 ^cheese:97263:25.716515
 ^cheetah:238757:3.784353
 ^chef:29852:8.364713
 ^chefs:60621:6.347422
 ^cheliotis:209133:-4.668905
 ^chelsea:207880:1.229888
 ^chemical:18287:13.781766
 ^chemically:38883:7.376058
 ^chemicals:35433:1.620067
 ^chemistry:179756:40.093071
 ^chen:168351:-17.996920
 ^cheney:128492:-19.980776
 ^cheng:233449:4.777274
 ^cheriton:160457:-19.904753
 ^cherry:70074:2.420062
 ^chess:6079:-7.232529
 ^chest:238110:-6.283822
 ^chevrolet:217431:13.946391
 ^chevron:28573:0.097949
 ^chevy:52460:0.093016
 ^chew:116515:7.594133
 ^chi:38287:11.236403
 ^chic:58694:8.636087
 ^chicago:228663:6.955785
 ^chicka:236459:-20.040531
 ^chicken:188886:32.661915
 ^chief:45551:9.420106
 ^chiefly:148498:-24.846054
 ^chiefs:222850:7.948951
 ^child:147554:1.886609
 ^childhood:260295:15.668637
 ^childlike:28849:18.348223
 ^children:71389:9.066169
 ^chili:47018:6.503097
 ^chilling:114281:-78.903732
 ^chimed:231431:0.308860
 ^chimes:210422:-12.167255
 ^chin:244044:27.923256
 ^china:132785:2.370484
 ^chinese:98482:5.355984
 ^ching:160690:1.001365
 ^chingy:256777:1.678604
 ^chip:156717:2.635647
 ^chipmaker:46529:-0.874346
 ^chipmakers:47613:10.445088
 ^chipotle:155766:41.370308
 ^chipped:245713:19.146984
 ^chipping:163009:-9.695833
 ^chips:78992:1.967057
 ^chipset:185546:-14.656224
 ^chipsets:151370:6.944338
 ^chitika:149678:0.248962
 ^chizik:231241:27.456306
 ^chloe:258067:12.038408
 ^choates:149465:4.822145
 ^chock:229111:26.656116
 ^chocolate:146494:-1.524263
 ^chohan:68358:12.056896
 ^choice:188441:5.608387
 ^choices:224415:1.747125
 ^choking:256406:21.879709
 ^choose:241832:1.969126
 ^chooses:214887:21.955282
 ^choosing:173412:6.141490
 ^chopping:157722:-20.615297
 ^choppy:49174:6.761587
 ^chops:261491:-41.753128
 ^chord:202026:5.578702
 ^chore:8010:3.199301
 ^choreographed:208177:12.804566
 ^chores:6416:44.072674
 ^chortle:181242:0.619178
 ^chorus:254887:-5.202818
 ^choruses:148790:-5.430304
 ^chose:82264:9.234350
 ^chosen:247829:18.338665
 ^choses:136580:5.229888
 ^chou:169761:23.270130
 ^chowdhry:38517:-7.565149
 ^chris:22124:3.689774
 ^chrissy:127905:0.868868
 ^christ:199709:10.700345
 ^christened:100895:9.813087
 ^christensen:46120:-3.303348
 ^christian:80855:-2.078077
 ^christians:116775:-2.078077
 ^christie:96721:6.733626
 ^christina:121765:-1.921518
 ^christine:77866:-15.469223
 ^christmas:150543:4.163013
 ^christopher:8688:-1.860610
 ^christy:16473:5.779424
 ^chrome:49622:1.408355
 ^chromebook:181974:-1.125098
 ^chromebooks:28181:51.654373
 ^chronic:29867:40.093071
 ^chronicle:29690:13.273014
 ^chronicled:200645:-9.020523
 ^chronograph:153058:-13.001289
 ^chronological:261262:-8.902561
 ^chronos:83144:-30.592625
 ^chrysler:152826:5.854128
 ^chu:244839:3.676774
 ^chuck:92983:-1.861635
 ^chuckles:33782:12.535246
 ^chul:257346:37.091972
 ^chump:243302:0.954851
 ^chumps:158508:-43.790604
 ^chung:59984:37.091972
 ^chungcheong:238025:-17.721762
 ^chunk:132724:-6.751793
 ^chunkiness:171442:33.930168
 ^chunks:33208:13.287709
 ^chupka:205226:9.044647
 ^church:78518:1.945556
 ^churn:147389:-13.468401
 ^churning:76743:7.918321
 ^cia:175786:-24.747288
 ^cider:245316:2.468093
 ^cidr:60218:-10.712074
 ^cihra:146127:21.771376
 ^cinema:70949:19.729631
 ^cinemax:36983:-0.938083
 ^cinnamon:217798:-2.340764
 ^cinnamony:108868:-3.691215
 ^cintolo:158084:12.038408
 ^cio:257476:3.338006
 ^cios:59069:1.061037
 ^cipriani:191213:-4.618098
 ^circa:43650:3.729163
 ^circle:182918:8.595503
 ^circles:230998:0.906534
 ^circling:95535:12.535246
 ^circuit:223193:22.772442
 ^circuiting:12913:-2.378516
 ^circuitry:95267:3.256109
 ^circuits:134118:-0.583768
 ^circular:247876:-3.824595
 ^circulate:137539:-8.702262
 ^circulating:61458:-4.278892
 ^circulation:218149:0.428387
 ^circumference:94742:-44.266525
 ^circumspect:180419:10.182573
 ^circumstance:87489:33.164288
 ^circumstances:64040:2.712195
 ^circumstantial:132660:-6.425100
 ^circumvent:50997:-0.127715
 ^circumventing:146732:-1.220886
 ^cironline:130699:-20.550003
 ^cirrus:157003:-3.127829
 ^cis:203161:-35.316467
 ^cisco:100919:-2.926674
 ^cite:60880:-0.725921
 ^cited:1513:12.253677
 ^cites:97248:18.926693
 ^citi:53565:11.154107
 ^citibank:173291:-0.800820
 ^cities:251499:13.517268
 ^citigroup:68032:-12.290223
 ^citing:116404:7.561058
 ^citizen:200871:-14.124024
 ^citizens:124464:3.087705
 ^citizenship:144627:-18.283504
 ^citrix:232741:3.013235
 ^city:5983:1.817166
 ^citycenter:180989:5.371265
 ^citycenterdc:238031:10.742531
 ^cityscape:248130:-11.776632
 ^civ:192000:-43.951927
 ^civil:25854:25.246346
 ^civilization:260321:29.562160
 ^clad:142189:-36.712193
 ^claim:27436:11.570895
 ^claimants:210217:2.439971
 ^claimed:261816:9.781271
 ^claiming:167346:4.704396
 ^claims:207552:6.894307
 ^claire:114443:33.392536
 ^clairvoyant:77044:-25.337505
 ^clamoring:221163:-56.949154
 ^clampdown:37557:5.354470
 ^clamped:196898:51.352791
 ^clandestine:14939:19.302828
 ^clapper:115773:10.700345
 ^clara:84184:-4.853052
 ^clarendon:95958:21.485062
 ^clarification:201488:-16.354843
 ^clarified:9204:25.416897
 ^clarify:77195:5.902243
 ^clarity:83244:-24.408443
 ^clark:84440:-0.608033
 ^clarke:10353:4.237751
 ^clarkmatt:190075:-4.421163
 ^clarkson:1068:-12.794918
 ^clash:188801:-11.574900
 ^clashed:176011:-2.725415
 ^class:127646:2.620714
 ^classes:100763:0.263435
 ^classic:29662:1.878737
 ^classification:17557:12.215361
 ^classified:135873:-13.197197
 ^classify:34160:-1.912220
 ^classroom:196139:-9.742010
 ^classrooms:159957:-0.709431
 ^classy:99487:42.629288
 ^clattered:49669:-28.405676
 ^claude:24073:41.370308
 ^clausing:214916:-20.550003
 ^claw:181972:61.439209
 ^clawing:240835:51.352791
 ^clay:220249:12.861866
 ^clayton:23971:-4.781606
 ^clean:185222:5.858560
 ^cleaned:106107:0.428387
 ^cleaner:249753:23.658236
 ^cleaners:109360:-20.526407
 ^cleaning:139300:-2.982689
 ^cleanly:194833:-37.174225
 ^cleans:84067:-10.413913
 ^cleanup:58732:-41.601574
 ^clear:260782:12.323462
 ^clearance:146217:23.270130
 ^clearcurve:164097:17.825903
 ^cleared:172465:-0.216967
 ^clearer:182833:-35.657284
 ^clearest:166344:-23.970486
 ^clearing:189552:10.227734
 ^clearly:260456:5.067412
 ^clears:227754:41.967712
 ^cleary:54351:-6.973735
 ^clenches:89837:-0.654842
 ^cleopatra:39511:40.093071
 ^clerk:93550:6.277531
 ^clever:194435:2.967573
 ^cleverly:181434:12.869016
 ^cliched:18778:11.358092
 ^click:210380:6.080623
 ^clicked:240415:-0.010606
 ^clicking:168844:2.578097
 ^clicks:217649:-2.238949
 ^clickwheel:135068:-8.284592
 ^client:226134:1.838131
 ^clientele:147073:17.534924
 ^clients:114940:1.256253
 ^cliff:204219:4.397950
 ^climate:78136:10.008813
 ^climb:164681:40.641796
 ^climbed:235418:-0.272205
 ^climbing:186444:-1.549679
 ^climbs:242992:20.444342
 ^clinch:138485:82.993767
 ^clinging:144645:-3.480450
 ^clinton:168762:-6.577448
 ^clip:197238:-0.862319
 ^clipboard:256888:-2.657555
 ^clipper:73238:19.823837
 ^clipping:192446:8.052035
 ^clips:26263:10.752500
 ^clique:50205:7.005770
 ^clive:86165:-1.724302
 ^cloak:157730:-11.069557
 ^cloaked:215077:-7.232529
 ^clobbered:244227:-7.479873
 ^clock:190705:3.638952
 ^clockface:191850:-4.142297
 ^clocks:106363:-15.304701
 ^cloistered:130895:2.484262
 ^clone:138663:13.889110
 ^cloned:183463:-18.418079
 ^cloner:180511:-11.067411
 ^cloners:146985:-28.587276
 ^clones:99474:10.657095
 ^close:183750:8.656159
 ^closed:63128:2.854361
 ^closely:95054:5.445975
 ^closeness:112125:29.015366
 ^closer:77252:1.223262
 ^closes:31318:-7.753925
 ^closest:16664:8.285355
 ^closet:134060:16.447884
 ^closing:178775:4.349826
 ^closure:123734:-5.148088
 ^cloth:141054:18.284260
 ^clothed:73285:13.946391
 ^clothes:140922:13.642281
 ^clothing:243448:7.444398
 ^cloud:219405:0.697303
 ^clouded:27595:14.986270
 ^cloudmark:40098:-38.486664
 ^clouds:78586:-59.784500
 ^clout:253897:4.127223
 ^clsa:70938:13.583178
 ^club:208645:11.060423
 ^clubs:85118:12.802861
 ^clue:171503:15.858043
 ^clues:134708:-69.655609
 ^clumsily:137624:30.638288
 ^clumsy:238019:-32.657158
 ^clung:158795:-7.620066
 ^clunky:65238:17.811815
 ^cluster:68586:1.462038
 ^clustering:200809:-4.741960
 ^clusters:78453:9.253014
 ^clutter:240921:-10.459435
 ^cluttered:25457:-3.162528
 ^cluttering:84411:-6.183136
 ^clybourn:241710:8.108088
 ^cm:65440:-4.566893
 ^cmg:11558:41.370308
 ^cmo:7318:34.089447
 ^cmos:27240:0.486868
 ^cn:148637:-7.863322
 ^cnbc:55419:6.126886
 ^cnc:37000:10.779572
 ^cnet:257102:5.768777
 ^cnetrumorshow:86251:7.694286
 ^cnn:249079:15.082117
 ^cnnmoney:94655:20.835709
 ^cnx:248443:22.562983
 ^co:257146:5.115890
 ^coach:121925:4.586202
 ^coaches:251298:25.261330
 ^coaching:40902:12.893899
 ^coal:39881:-0.256713
 ^coalition:32864:-15.879388
 ^coast:46480:3.117243
 ^coastal:35519:-4.088121
 ^coaster:209599:6.021015
 ^coating:5118:2.492974
 ^coattails:64192:14.334090
 ^coaxed:230536:29.562160
 ^coca:233109:-4.696551
 ^cockpit:46117:41.370308
 ^cocktail:160915:39.752636
 ^cocktails:121482:-4.243982
 ^cocoa:227574:3.573775
 ^cocteau:103275:-1.458525
 ^code:80646:9.337489
 ^coded:205012:7.376058
 ^codename:80937:9.813087
 ^codenamed:126301:10.404426
 ^codes:148172:12.322707
 ^codgers:191186:-15.608601
 ^codling:150883:0.428387
 ^cody:85130:-1.962495
 ^codywillard:94527:-16.193853
 ^coefficient:6297:10.268023
 ^coffee:62080:18.053162
 ^coffers:8950:-1.962720
 ^coffin:59460:4.916035
 ^cofounded:148864:11.902691
 ^cofounder:50563:3.349942
 ^cofounders:44180:-8.825554
 ^cog:49581:-2.657555
 ^cogent:4644:-21.430380
 ^cognitive:40032:6.229231
 ^cohan:78972:-16.757648
 ^cohen:237319:-21.883087
 ^coherency:242395:25.347767
 ^coherent:83864:-42.229240
 ^coherently:112433:-42.229240
 ^cohesion:243838:61.439209
 ^cohesive:165598:25.454420
 ^cohort:99224:3.789439
 ^cohorts:69674:12.535246
 ^coil:216135:-5.751769
 ^coiled:140528:-2.782110
 ^coils:85399:-10.065336
 ^coin:111229:-81.793716
 ^coincided:34628:-0.041873
 ^coincidence:168175:-3.714930
 ^coinciding:165597:-64.647499
 ^coined:94450:-21.097012
 ^coke:17616:-10.788312
 ^cola:175643:-4.696551
 ^colas:253193:-2.159223
 ^colby:142280:2.611311
 ^cold:57894:5.844263
 ^colder:165381:20.160168
 ^coldplay:50584:5.526235
 ^cole:245618:-13.783915
 ^coleman:174921:7.822208
 ^coler:164861:-78.903732
 ^colin:248867:-5.445131
 ^collaborate:189334:1.916171
 ^collaborates:236874:36.388206
 ^collaboration:244085:-0.487518
 ^collaborative:160605:-22.596889
 ^collaborators:230824:24.497936
 ^collapse:112021:1.332193
 ^collapsed:194579:12.514723
 ^collapses:144756:24.067467
 ^collapsing:39337:-7.057035
 ^collar:96672:28.233910
 ^collateral:65462:4.864930
 ^colleague:212176:0.219224
 ^colleagues:50329:6.762752
 ^collect:154014:-7.928284
 ^collected:219013:6.692729
 ^collectibles:164022:4.159645
 ^collecting:214534:-16.150955
 ^collection:2561:0.856740
 ^collections:226157:5.430177
 ^collective:72421:-18.006731
 ^collectively:57042:-30.190601
 ^collector:210581:16.785713
 ^collectors:18015:8.837455
 ^collects:135045:-45.588428
 ^colleen:187906:-43.717537
 ^college:125409:9.739059
 ^colleges:38569:-7.496305
 ^collided:139939:-22.326845
 ^colligan:176264:-0.377180
 ^collisions:155940:-8.213870
 ^colluded:217716:-10.485644
 ^collusion:34083:25.521318
 ^colo:142435:5.098991
 ^colombia:22002:-33.720139
 ^colony:45446:-33.476063
 ^color:47554:2.323485
 ^colorado:107649:8.932178
 ^colored:98948:12.741916
 ^colorful:219092:-0.106629
 ^colors:118251:6.450889
 ^colossus:161543:10.579783
 ^colten:221715:-19.980776
 ^columbia:35433:1.620067
 ^columbus:176602:-5.732152
 ^column:139615:7.055502
 ^columnist:97330:-14.012510
 ^columnists:223230:-1.670391
 ^columns:65980:8.111730
 ^com:19830:6.966376
 ^comb:32618:-4.243982
 ^combat:46339:8.985424
 ^combative:84588:15.391985
 ^combed:185128:3.376468
 ^combination:62896:-13.567713
 ^combinations:105297:9.134107
 ^combine:165559:-0.564423
 ^combined:160461:16.482531
 ^combines:230492:8.429718
 ^combining:261511:11.614899
 ^combo:28398:-4.804234
 ^combs:50539:13.946391
 ^combustible:184268:29.141796
 ^comcast:758:-3.685331
 ^comcastic:1472:-72.579376
 ^come:147340:18.664623
 ^comeback:169328:-17.832754
 ^comedian:69433:-0.377228
 ^comedic:91214:-28.405676
 ^comedies:33647:13.946391
 ^comedown:154404:-26.720829
 ^comedy:213419:11.648094
 ^comes:204888:8.892497
 ^cometh:210958:-4.998591
 ^comfort:17761:11.098528
 ^comfortable:191994:-6.382900
 ^comfortably:92727:7.811994
 ^comforting:242804:-27.737068
 ^comic:126486:-12.771708
 ^comical:48784:-8.332268
 ^comically:81900:0.271461
 ^comics:3991:8.104056
 ^coming:161917:11.438924
 ^comma:20324:-2.004184
 ^command:189197:-4.093125
 ^commanded:194535:-11.672249
 ^commanding:212205:-3.860363
 ^commands:28789:-33.551117
 ^commas:129586:44.731113
 ^commence:97568:0.053374
 ^commenced:7498:38.874733
 ^commencement:181018:0.128503
 ^commencing:192316:2.242834
 ^commendable:116283:53.473412
 ^comment:90701:11.050762
 ^commentary:34538:-25.324549
 ^commentator:106629:-32.233810
 ^commentators:78145:-11.740217
 ^commented:175743:4.338557
 ^commenter:156684:-0.020808
 ^commenting:159293:-8.313887
 ^comments:161122:5.537187
 ^commerce:206044:2.744515
 ^commercial:127847:5.827723
 ^commercialization:177740:-44.266525
 ^commercialize:148658:26.631927
 ^commercialized:130789:-8.228826
 ^commercializing:84103:-28.008667
 ^commercially:174960:-31.338251
 ^commercials:117160:4.497123
 ^commiserate:72457:-21.430380
 ^commiserates:258871:14.340054
 ^commission:148980:-1.078480
 ^commissioned:31221:-69.655609
 ^commissioner:22081:1.556210
 ^commissions:99474:10.657095
 ^commit:202385:-4.101027
 ^commitment:174422:13.106299
 ^commitments:192890:7.516338
 ^committed:19579:35.484653
 ^committee:61406:1.008152
 ^committees:193510:88.610229
 ^committing:13408:14.793274
 ^commodities:182324:9.192284
 ^commoditization:32616:-40.717667
 ^commoditized:187223:11.233429
 ^commodity:113205:5.211227
 ^commodore:226585:-9.673896
 ^common:115472:2.416064
 ^commonality:148878:-21.364290
 ^commonly:63144:5.586694
 ^commonplace:90587:17.783134
 ^communal:195268:-1.882725
 ^communicate:61211:9.111256
 ^communicated:261738:-18.418079
 ^communicating:259244:-44.328480
 ^communication:47055:7.314635
 ^communications:172403:0.062684
 ^communist:70908:14.393908
 ^communists:17336:13.946391
 ^communities:122037:1.540287
 ^community:229653:1.993489
 ^commuters:71548:6.233850
 ^commuting:85194:-11.062508
 ^comp:80637:-36.712193
 ^compact:212006:3.983414
 ^companies:141496:8.229596
 ^companion:44339:17.843178
 ^companionship:31555:-2.078077
 ^company:150849:8.305963
 ^compaq:147293:-8.232759
 ^comparable:9223:-7.562576
 ^comparables:206032:3.974074
 ^comparably:13773:6.125347
 ^comparative:117151:-3.762419
 ^comparatively:89240:-4.263170
 ^compare:58816:5.252715
 ^compared:78819:8.931170
 ^compares:148399:11.275887
 ^comparing:221373:0.412802
 ^comparison:200748:9.656342
 ^comparisons:248606:-5.311784
 ^compass:247073:-30.995411
 ^compassion:176558:-4.632278
 ^compatibility:136282:3.857288
 ^compatible:155696:9.414516
 ^compatriots:157337:61.439209
 ^compelling:62632:15.454184
 ^compensate:139336:16.714344
 ^compensated:20159:-8.239598
 ^compensating:143603:10.135666
 ^compensation:160953:2.599949
 ^compete:44752:2.610531
 ^competed:4020:-26.750635
 ^competence:123477:-30.172079
 ^competencies:68254:-1.324392
 ^competency:89296:0.556854
 ^competent:133213:-13.163692
 ^competes:145545:-14.283731
 ^competing:209286:13.729024
 ^competition:54930:8.979311
 ^competitions:7472:40.093071
 ^competitive:24901:19.495657
 ^competitively:190118:-22.076656
 ^competitiveness:176413:34.467361
 ^competitor:21467:-0.110388
 ^competitors:26328:8.103785
 ^compile:242910:-19.904753
 ^compiled:73036:5.894281
 ^compiling:50039:1.050145
 ^complacency:209213:-1.194173
 ^complacent:922:-5.889625
 ^complain:110851:-0.351465
 ^complained:252506:10.026211
 ^complaining:255137:3.998264
 ^complains:240504:-18.516550
 ^complaint:155669:10.660204
 ^complaints:155020:3.827498
 ^complement:139995:2.572693
 ^complementary:252247:-15.048183
 ^complemented:229686:-71.701851
 ^complementing:170177:-35.316467
 ^complements:126600:-30.592625
 ^complete:253752:4.863349
 ^completed:2778:5.593729
 ^completely:248428:9.447548
 ^completing:90716:13.886303
 ^completion:145997:-0.708421
 ^complex:64240:0.248803
 ^complexes:167408:-57.360046
 ^complexities:260218:-2.184304
 ^complexity:45919:61.439209
 ^compliance:23684:4.205582
 ^compliant:184496:-2.535648
 ^complicate:150590:31.959665
 ^complicated:108550:-1.910303
 ^complicates:113191:-22.115101
 ^complicating:127429:39.752636
 ^complication:179863:10.924287
 ^complications:63883:4.903481
 ^complied:230312:-12.318841
 ^compliment:27966:-20.040531
 ^compliments:62404:-13.001289
 ^comply:132070:3.036709
 ^complying:241764:-22.909187
 ^component:202886:7.481770
 ^components:107331:3.699028
 ^compose:226882:13.314230
 ^composed:101093:-17.732067
 ^composer:100124:-18.418079
 ^composers:171593:-2.361836
 ^composite:114327:6.103477
 ^composition:107064:-9.209044
 ^compound:51195:-3.846967
 ^compounded:170401:-23.223026
 ^comprehensive:65087:-28.927963
 ^compress:21469:2.744826
 ^compressed:11413:0.562370
 ^compressing:240817:7.530427
 ^compression:100768:-5.141377
 ^comprise:54922:-28.008667
 ^comprised:168651:10.451670
 ^comprises:258586:41.370308
 ^comprising:125428:-9.872367
 ^compromise:201271:-11.911423
 ^compromised:17694:-1.180086
 ^compromises:158545:8.243144
 ^compromising:15770:7.831242
 ^comptroller:228047:10.936910
 ^compulsory:250121:29.141796
 ^compusa:23533:0.432046
 ^compuserve:79990:61.439209
 ^computations:212561:-59.784500
 ^computer:1837:6.589627
 ^computerized:223063:8.648836
 ^computers:156893:6.039982
 ^computerworld:4739:-0.102556
 ^computex:103660:42.629288
 ^computing:238180:6.953921
 ^comscore:32303:-13.233596
 ^comtech:204225:-13.058710
 ^concave:108410:15.043542
 ^concealed:5806:-106.253677
 ^concede:237066:-13.947471
 ^conceded:93928:-9.748849
 ^conceivable:130247:26.074171
 ^conceivably:159773:-53.335083
 ^conceive:117315:-27.328506
 ^conceived:171252:-27.086269
 ^concentrate:172320:26.213875
 ^concentrated:80255:-4.226849
 ^concentrating:3330:24.067467
 ^concentration:73019:1.121484
 ^concept:261679:4.029650
 ^concepts:132427:-0.284589
 ^conceptual:52425:30.355663
 ^conceptually:125916:-10.145926
 ^concern:32845:17.642649
 ^concerned:219695:10.176027
 ^concerning:12974:14.041972
 ^concerns:220614:2.929251
 ^concert:39287:11.065071
 ^concerts:153729:-21.028316
 ^concession:55448:12.535246
 ^conchas:243914:2.135818
 ^conclude:675:-17.535311
 ^concluded:209870:10.180989
 ^concludes:473:17.581476
 ^concluding:96478:24.067467
 ^conclusion:23136:11.223053
 ^conclusions:41871:10.849220
 ^concocted:144153:-4.388402
 ^concrete:3185:-7.795105
 ^concurrent:2828:-4.461176
 ^concurrently:59797:18.130957
 ^concussion:77746:-0.586239
 ^concussions:45371:-1.172478
 ^condemning:176013:12.221637
 ^condensed:198198:-1.378775
 ^condition:70575:3.947814
 ^conditional:119333:0.701561
 ^conditioned:132047:-39.492458
 ^conditioners:32964:-48.669819
 ^conditioning:164264:38.870026
 ^conditions:217262:-4.758180
 ^condo:258821:-6.790284
 ^condolences:87914:-78.903732
 ^conduct:258455:11.971457
 ^conducted:155198:-1.298101
 ^conducting:6214:-18.205027
 ^conductors:86284:42.629288
 ^conducts:86246:29.141796
 ^conduit:162235:-16.119469
 ^cone:207574:-61.684643
 ^conference:132361:6.493137
 ^conferencing:65423:-10.453010
 ^conferred:58993:2.051568
 ^confess:206610:-57.174553
 ^confessed:98759:13.946391
 ^confession:20134:-33.503902
 ^confetti:216501:21.097488
 ^confidant:255871:-5.450830
 ^confidants:178828:-4.438490
 ^confidence:216912:5.886755
 ^confident:201689:4.624074
 ^confidenti:21833:1.305655
 ^confidential:260304:13.838672
 ^confidentiality:239859:-7.833843
 ^confidently:45347:9.755573
 ^configuration:47339:12.398258
 ^configurations:67571:-17.312103
 ^configure:93933:-3.105666
 ^configured:195834:16.622654
 ^configuring:151707:-4.045867
 ^confirm:71579:-6.018448
 ^confirmation:135782:-2.225162
 ^confirmed:209177:4.592085
 ^confirming:237926:-2.937214
 ^confirms:4805:8.279823
 ^conflating:134996:20.835709
 ^conflict:111596:8.941598
 ^conflicted:69590:-20.125122
